{"learner":{"attributes":{"scikit_learn":"{\"_estimator_type\": \"regressor\"}"},"feature_names":["day_of_week","month","quarter","is_weekend","is_holiday","total_sales_lag_1","total_sales_lag_7","total_sales_lag_14","total_sales_lag_30","total_sales_rolling_avg_7","total_sales_rolling_std_7","total_sales_rolling_avg_30","total_sales_rolling_std_30"],"feature_types":["int","int","int","int","int","float","float","float","float","float","float","float","float"],"gradient_booster":{"model":{"cats":{"enc":[],"feature_segments":[],"sorted_idx":[]},"gbtree_model_param":{"num_parallel_tree":"1","num_trees":"100"},"iteration_indptr":[0,1,2,3,4,5,6,7,8,9,10,11,12,13,14,15,16,17,18,19,20,21,22,23,24,25,26,27,28,29,30,31,32,33,34,35,36,37,38,39,40,41,42,43,44,45,46,47,48,49,50,51,52,53,54,55,56,57,58,59,60,61,62,63,64,65,66,67,68,69,70,71,72,73,74,75,76,77,78,79,80,81,82,83,84,85,86,87,88,89,90,91,92,93,94,95,96,97,98,99,100],"tree_info":[0,0,0,0,0,0,0,0,0,0,0,0,0,0,0,0,0,0,0,0,0,0,0,0,0,0,0,0,0,0,0,0,0,0,0,0,0,0,0,0,0,0,0,0,0,0,0,0,0,0,0,0,0,0,0,0,0,0,0,0,0,0,0,0,0,0,0,0,0,0,0,0,0,0,0,0,0,0,0,0,0,0,0,0,0,0,0,0,0,0,0,0,0,0,0,0,0,0,0,0],"trees":[{"base_weights":[2.0520911E-4,-1.0052125E4,9.414814E3,-1.8130236E4,-5.719361E3,2.9976938E3,1.4640329E4,-9.217348E2,-4.8141388E2,-7.9576553E3,-2.8011196E3,4.57778E3,-6.857883E2,1.4014498E4,3.3387024E3,-1.0132208E4,-6.656842E3,-1.1594077E3,-6.629462E3,2.7933274E3,6.7422344E3,-4.2840537E3,2.5236692E3,1.7493871E4,8.904319E3,-5.212691E2,5.4526955E1,-3.603644E2,-2.600802E2,3.0650742E2,-7.390059E1,-2.009333E2,-3.7364233E2,7.2868996E1,2.9890057E2,8.4375786E1,3.8436813E2,7.347671E1,-2.3061888E2,1.0547315E1,2.4100829E2,6.380586E2,9.8758636E2,3.627203E2,7.730162E2],"categories":[],"categories_nodes":[],"categories_segments":[],"categories_sizes":[],"default_left":[0,0,0,0,0,0,0,0,0,0,0,0,0,0,0,0,0,0,0,0,0,0,0,0,0,0,0,0,0,0,0,0,0,0,0,0,0,0,0,0,0,0,0,0,0],"id":0,"left_children":[1,3,5,7,9,11,13,-1,-1,15,17,19,21,23,-1,25,27,29,31,33,35,37,39,41,43,-1,-1,-1,-1,-1,-1,-1,-1,-1,-1,-1,-1,-1,-1,-1,-1,-1,-1,-1,-1],"loss_changes":[6.3597335E10,1.127149E10,1.1591981E10,1.1500339E8,1.3690004E9,9.1691366E8,5.295923E9,0E0,0E0,2.7199386E8,5.8310694E8,4.06027E8,5.651386E8,3.2224748E9,0E0,1.528489E8,2.499072E7,1.6466672E8,3.1622656E7,2.5507117E8,2.2111795E8,5.0225984E7,1.3707334E8,9.4474854E8,7.423749E8,0E0,0E0,0E0,0E0,0E0,0E0,0E0,0E0,0E0,0E0,0E0,0E0,0E0,0E0,0E0,0E0,0E0,0E0,0E0,0E0],"parents":[2147483647,0,0,1,1,2,2,3,3,4,4,5,5,6,6,9,9,10,10,11,11,12,12,13,13,15,15,16,16,17,17,18,18,19,19,20,20,21,21,22,22,23,23,24,24],"right_children":[2,4,6,8,10,12,14,-1,-1,16,18,20,22,24,-1,26,28,30,32,34,36,38,40,42,44,-1,-1,-1,-1,-1,-1,-1,-1,-1,-1,-1,-1,-1,-1,-1,-1,-1,-1,-1,-1],"split_conditions":[1.7649418E4,1.7664734E3,2.7640285E4,3.4078386E3,1.4064041E4,5E0,4.6752082E4,-9.217348E2,-4.8141388E2,1.046773E4,5E0,5.434965E3,2.1650553E4,4E0,3.3387024E3,4.4271543E3,1.329603E4,2E0,3.2464236E3,2.3442168E4,1.873286E4,9.12988E3,2.078705E4,3.1184453E4,3.798273E4,-5.212691E2,5.4526955E1,-3.603644E2,-2.600802E2,3.0650742E2,-7.390059E1,-2.009333E2,-3.7364233E2,7.2868996E1,2.9890057E2,8.4375786E1,3.8436813E2,7.347671E1,-2.3061888E2,1.0547315E1,2.4100829E2,6.380586E2,9.8758636E2,3.627203E2,7.730162E2],"split_indices":[9,11,9,10,9,0,10,0,0,9,0,10,9,0,0,12,7,1,10,9,5,6,5,9,5,0,0,0,0,0,0,0,0,0,0,0,0,0,0,0,0,0,0,0,0],"split_type":[0,0,0,0,0,0,0,0,0,0,0,0,0,0,0,0,0,0,0,0,0,0,0,0,0,0,0,0,0,0,0,0,0,0,0,0,0,0,0,0,0,0,0,0,0],"sum_hessian":[6.7E2,3.24E2,3.46E2,1.12E2,2.12E2,1.56E2,1.9E2,1.07E2,5E0,1.19E2,9.3E1,1.09E2,4.7E1,1.89E2,1E0,4.2E1,7.7E1,6.6E1,2.7E1,6.1E1,4.8E1,2.2E1,2.5E1,1.11E2,7.8E1,4.1E1,1E0,5.3E1,2.4E1,2E0,6.4E1,8E0,1.9E1,4.4E1,1.7E1,8E0,4E1,1E0,2.1E1,1.3E1,1.2E1,3.8E1,7.3E1,6.4E1,1.4E1],"tree_param":{"num_deleted":"0","num_feature":"13","num_nodes":"45","size_leaf_vector":"1"}},{"base_weights":[6.2636604E0,-7.818655E3,1.0961127E4,-1.5992021E4,-3.3150461E3,8.572852E3,2.0361145E4,-1.7504242E4,-5.4035504E2,-6.5328228E3,-1.0405022E3,4.2040684E3,1.1048628E4,1.8363904E4,3.2552349E3,-8.7923645E2,-2.263267E2,-8.750121E3,-6.0358916E3,7.8303485E2,-5.3128228E3,6.0363115E3,2.5227007E3,1.4415352E4,6.544609E3,1.0212878E3,1.1503917E4,-4.5175723E2,-1.0474355E2,-3.0615085E2,4.0779446E1,6.17207E0,2.9697818E2,-3.166727E2,-1.1566561E2,5.3435497E1,3.210296E2,3.4180252E1,2.2959859E2,5.862029E2,8.260527E2,4.6454623E2,2.4751192E2,3.7883713E2,1.0204731E3],"categories":[],"categories_nodes":[],"categories_segments":[],"categories_sizes":[],"default_left":[0,0,0,0,0,0,0,0,0,0,0,0,0,0,0,0,0,0,0,0,0,0,0,0,0,0,0,0,0,0,0,0,0,0,0,0,0,0,0,0,0,0,0,0,0],"id":1,"left_children":[1,3,5,7,9,11,13,15,-1,17,19,21,23,25,-1,-1,-1,27,29,31,33,35,37,39,41,-1,43,-1,-1,-1,-1,-1,-1,-1,-1,-1,-1,-1,-1,-1,-1,-1,-1,-1,-1],"loss_changes":[5.7604436E10,1.4376368E10,6.111402E9,9.00694E8,1.852222E9,2.3871795E9,3.8087864E9,3.1123456E7,0E0,6.287872E7,1.1727703E9,2.404681E8,2.0740772E9,5.429596E8,0E0,0E0,0E0,1.3319936E7,5.812173E7,3.597953E8,1.2311142E8,6.758746E7,1.6811235E8,2.6533786E8,2.298624E8,0E0,3.6996723E8,0E0,0E0,0E0,0E0,0E0,0E0,0E0,0E0,0E0,0E0,0E0,0E0,0E0,0E0,0E0,0E0,0E0,0E0],"parents":[2147483647,0,0,1,1,2,2,3,3,4,4,5,5,6,6,7,7,9,9,10,10,11,11,12,12,13,13,17,17,18,18,19,19,20,20,21,21,22,22,23,23,24,24,26,26],"right_children":[2,4,6,8,10,12,14,16,-1,18,20,22,24,26,-1,-1,-1,28,30,32,34,36,38,40,42,-1,44,-1,-1,-1,-1,-1,-1,-1,-1,-1,-1,-1,-1,-1,-1,-1,-1,-1,-1],"split_conditions":[2.1080508E4,8.976442E3,3.397978E4,3.7979E3,1.4499573E4,2.7097748E4,4.6752082E4,3.4078386E3,-5.4035504E2,7.35657E3,5E0,3E0,4E0,5E0,3.2552349E3,-8.7923645E2,-2.263267E2,1.938361E4,1.4462004E4,6.0300483E3,1.9445088E4,2.1481482E4,2.622242E4,6.0553022E3,5E0,1.0212878E3,4.078296E4,-4.5175723E2,-1.0474355E2,-3.0615085E2,4.0779446E1,6.17207E0,2.9697818E2,-3.166727E2,-1.1566561E2,5.3435497E1,3.210296E2,3.4180252E1,2.2959859E2,5.862029E2,8.260527E2,4.6454623E2,2.4751192E2,3.7883713E2,1.0204731E3],"split_indices":[9,9,9,5,9,9,10,10,0,6,0,0,0,0,0,0,0,7,9,10,9,9,8,10,0,0,5,0,0,0,0,0,0,0,0,0,0,0,0,0,0,0,0,0,0],"split_type":[0,0,0,0,0,0,0,0,0,0,0,0,0,0,0,0,0,0,0,0,0,0,0,0,0,0,0,0,0,0,0,0,0,0,0,0,0,0,0,0,0,0,0,0,0],"sum_hessian":[6.7E2,3.91E2,2.79E2,1.38E2,2.53E2,2.24E2,5.5E1,1.05E2,3.3E1,1.04E2,1.49E2,8.2E1,1.42E2,5.4E1,1E0,1.04E2,1E0,1.6E1,8.8E1,1.05E2,4.4E1,3.8E1,4.4E1,8E1,6.2E1,4E1,1.4E1,1.5E1,1E0,8.7E1,1E0,9.4E1,1.1E1,3.2E1,1.2E1,3E0,3.5E1,2.4E1,2E1,3.8E1,4.2E1,2.1E1,4.1E1,1.1E1,3E0],"tree_param":{"num_deleted":"0","num_feature":"13","num_nodes":"45","size_leaf_vector":"1"}},{"base_weights":[1.4656024E1,-9.100603E3,8.551959E3,-1.6391457E4,-5.189958E3,3.712468E3,1.4317475E4,-8.3299066E2,-4.4145703E2,-7.199179E3,-2.5697825E3,1.634889E3,6.94712E3,1.3600043E4,3.173854E3,-9.172105E3,-6.019243E3,-5.95813E2,-5.2197456E3,3.2092095E3,-2.1452102E3,8.981933E3,3.8348994E3,1.7031752E4,8.73608E3,-4.724205E2,6.081753E1,-4.2306305E2,-2.8096402E2,2.6643063E2,-5.2004005E1,-1.5586632E2,-3.004725E2,8.152094E1,3.126088E2,-2.0299724E2,9.315133E1,3.7587167E2,6.3460126E2,2.303839E2,5.1860104E1,7.9071027E2,1.1299338E3,3.9197156E2,1.0449221E3],"categories":[],"categories_nodes":[],"categories_segments":[],"categories_sizes":[],"default_left":[0,0,0,0,0,0,0,0,0,0,0,0,0,0,0,0,0,0,0,0,0,0,0,0,0,0,0,0,0,0,0,0,0,0,0,0,0,0,0,0,0,0,0,0,0],"id":2,"left_children":[1,3,5,7,9,11,13,-1,-1,15,17,19,21,23,-1,25,27,29,31,33,35,37,39,41,43,-1,-1,-1,-1,-1,-1,-1,-1,-1,-1,-1,-1,-1,-1,-1,-1,-1,-1,-1,-1],"loss_changes":[5.2294865E10,9.181309E9,9.628895E9,8.22313E7,1.1028413E9,1.2654889E9,4.709155E9,0E0,0E0,2.2414182E8,4.885989E8,7.031617E8,4.3418112E8,2.471805E9,0E0,1.3491917E8,2.8637696E7,1.5030368E8,4.767821E7,3.8855546E8,2.7617862E8,1.4365952E8,6.224288E7,2.5941811E8,5.668275E8,0E0,0E0,0E0,0E0,0E0,0E0,0E0,0E0,0E0,0E0,0E0,0E0,0E0,0E0,0E0,0E0,0E0,0E0,0E0,0E0],"parents":[2147483647,0,0,1,1,2,2,3,3,4,4,5,5,6,6,9,9,10,10,11,11,12,12,13,13,15,15,16,16,17,17,18,18,19,19,20,20,21,21,22,22,23,23,24,24],"right_children":[2,4,6,8,10,12,14,-1,-1,16,18,20,22,24,-1,26,28,30,32,34,36,38,40,42,44,-1,-1,-1,-1,-1,-1,-1,-1,-1,-1,-1,-1,-1,-1,-1,-1,-1,-1,-1,-1],"split_conditions":[1.7649418E4,1.7664734E3,2.927739E4,3.4078386E3,1.4064041E4,2.3894623E4,4.6752082E4,-8.3299066E2,-4.4145703E2,1.046773E4,4E0,5E0,4E0,4E0,3.173854E3,4.4271543E3,7.35657E3,5E0,5E0,5.7019507E3,1.922752E4,5.992769E3,6.0553022E3,3.6509625E4,4.4686004E4,-4.724205E2,6.081753E1,-4.2306305E2,-2.8096402E2,2.6643063E2,-5.2004005E1,-1.5586632E2,-3.004725E2,8.152094E1,3.126088E2,-2.0299724E2,9.315133E1,3.7587167E2,6.3460126E2,2.303839E2,5.1860104E1,7.9071027E2,1.1299338E3,3.9197156E2,1.0449221E3],"split_indices":[9,11,9,10,9,9,10,0,0,9,0,0,0,0,0,12,6,1,0,10,5,10,10,9,9,0,0,0,0,0,0,0,0,0,0,0,0,0,0,0,0,0,0,0,0],"split_type":[0,0,0,0,0,0,0,0,0,0,0,0,0,0,0,0,0,0,0,0,0,0,0,0,0,0,0,0,0,0,0,0,0,0,0,0,0,0,0,0,0,0,0,0,0],"sum_hessian":[6.7E2,3.24E2,3.46E2,1.12E2,2.12E2,1.89E2,1.57E2,1.07E2,5E0,1.19E2,9.3E1,1.16E2,7.3E1,1.56E2,1E0,4.2E1,7.7E1,5.4E1,3.9E1,8.2E1,3.4E1,4.3E1,3E1,9E1,6.6E1,4.1E1,1E0,8E0,6.9E1,3E0,5.1E1,1.2E1,2.7E1,5.5E1,2.7E1,2.3E1,1.1E1,3.3E1,1E1,2.3E1,7E0,7.7E1,1.3E1,6.3E1,3E0],"tree_param":{"num_deleted":"0","num_feature":"13","num_nodes":"45","size_leaf_vector":"1"}},{"base_weights":[2.2084745E1,-8.653671E3,8.1477285E3,-1.5267635E4,-4.7588677E3,3.5351445E3,1.3642938E4,-1.6013008E4,-5.609735E2,-6.519679E3,-2.275463E3,1.5555742E3,6.6172334E3,1.2941427E4,3.0945076E3,-8.045421E2,-2.0963213E2,-7.8907217E3,-5.278361E3,-2.4676527E2,-4.8849214E3,3.053497E3,-2.0410873E3,8.555802E3,3.6522585E3,1.620127E4,8.320723E3,-4.040385E2,5.929707E1,-3.095669E2,-1.9091005E2,2.564395E2,-3.495045E1,-1.6403049E2,-3.082386E2,7.751766E1,2.9753656E2,-1.9327025E2,8.888194E1,3.576309E2,6.057558E2,-1.9127417E1,2.0491109E2,7.016613E2,9.427913E2,3.5509592E2,8.210833E2],"categories":[],"categories_nodes":[],"categories_segments":[],"categories_sizes":[],"default_left":[0,0,0,0,0,0,0,0,0,0,0,0,0,0,0,0,0,0,0,0,0,0,0,0,0,0,0,0,0,0,0,0,0,0,0,0,0,0,0,0,0,0,0,0,0,0,0],"id":3,"left_children":[1,3,5,7,9,11,13,15,-1,17,19,21,23,25,-1,-1,-1,27,29,31,33,35,37,39,41,43,45,-1,-1,-1,-1,-1,-1,-1,-1,-1,-1,-1,-1,-1,-1,-1,-1,-1,-1,-1,-1],"loss_changes":[4.7373386E10,8.2993705E9,8.747221E9,1.824297E8,8.8596326E8,1.1489367E9,4.5467177E9,2.3617536E7,0E0,1.6257792E8,4.5935536E8,6.365724E8,3.9408973E8,2.2300508E9,0E0,0E0,0E0,1.044585E8,6.434445E7,1.25138136E8,5.7800384E7,3.522359E8,2.5070123E8,1.3309747E8,5.7348416E7,2.59115E8,5.448965E8,0E0,0E0,0E0,0E0,0E0,0E0,0E0,0E0,0E0,0E0,0E0,0E0,0E0,0E0,0E0,0E0,0E0,0E0,0E0,0E0],"parents":[2147483647,0,0,1,1,2,2,3,3,4,4,5,5,6,6,7,7,9,9,10,10,11,11,12,12,13,13,17,17,18,18,19,19,20,20,21,21,22,22,23,23,24,24,25,25,26,26],"right_children":[2,4,6,8,10,12,14,16,-1,18,20,22,24,26,-1,-1,-1,28,30,32,34,36,38,40,42,44,46,-1,-1,-1,-1,-1,-1,-1,-1,-1,-1,-1,-1,-1,-1,-1,-1,-1,-1,-1,-1],"split_conditions":[1.7649418E4,6.7847344E3,2.927739E4,2.61126E3,1.4389791E4,2.3894623E4,4.6752082E4,3.4078386E3,-5.609735E2,1.1257837E4,4E0,5E0,4E0,4E0,3.0945076E3,-8.045421E2,-2.0963213E2,4.457455E3,1.283133E4,5E0,4.0057107E3,5.7019507E3,1.922752E4,5.992769E3,2.5372697E4,3.3647348E4,4.078296E4,-4.040385E2,5.929707E1,-3.095669E2,-1.9091005E2,2.564395E2,-3.495045E1,-1.6403049E2,-3.082386E2,7.751766E1,2.9753656E2,-1.9327025E2,8.888194E1,3.576309E2,6.057558E2,-1.9127417E1,2.0491109E2,7.016613E2,9.427913E2,3.5509592E2,8.210833E2],"split_indices":[9,9,9,5,9,9,10,10,0,9,0,0,0,0,0,0,0,12,7,1,10,10,5,10,9,9,5,0,0,0,0,0,0,0,0,0,0,0,0,0,0,0,0,0,0,0,0],"split_type":[0,0,0,0,0,0,0,0,0,0,0,0,0,0,0,0,0,0,0,0,0,0,0,0,0,0,0,0,0,0,0,0,0,0,0,0,0,0,0,0,0,0,0,0,0,0,0],"sum_hessian":[6.7E2,3.24E2,3.46E2,1.19E2,2.05E2,1.89E2,1.57E2,9.8E1,2.1E1,1.19E2,8.6E1,1.16E2,7.3E1,1.56E2,1E0,9.7E1,1E0,5.4E1,6.5E1,4.9E1,3.7E1,8.2E1,3.4E1,4.3E1,3E1,9E1,6.6E1,5.3E1,1E0,3.8E1,2.7E1,3E0,4.6E1,1.8E1,1.9E1,5.5E1,2.7E1,2.3E1,1.1E1,3.3E1,1E1,3E0,2.7E1,5.3E1,3.7E1,5.9E1,7E0],"tree_param":{"num_deleted":"0","num_feature":"13","num_nodes":"47","size_leaf_vector":"1"}},{"base_weights":[2.7931082E1,-6.7301836E3,9.489192E3,-1.38756045E4,-2.9227622E3,9.090638E3,3.017145E3,-1.5177543E4,-9.837508E3,-5.1405483E3,-3.8755975E2,4.9045005E3,1.2312321E4,-7.623781E2,-2.0439131E2,-5.038605E2,-1.9208612E2,-6.738218E3,-4.114742E3,-4.6437646E3,6.051703E2,6.4620576E3,2.653566E3,1.4587733E4,6.324901E3,-3.4578424E2,5.7814648E1,-1.6867764E2,-2.8477133E2,-7.31576E1,-2.6181796E2,7.476003E1,-2.0526561E2,2.1061816E2,4.5712695E2,3.501143E1,2.3675806E2,6.3065735E2,8.873831E2,2.511776E2,9.20392E2],"categories":[],"categories_nodes":[],"categories_segments":[],"categories_sizes":[],"default_left":[0,0,0,0,0,0,0,0,0,0,0,0,0,0,0,0,0,0,0,0,0,0,0,0,0,0,0,0,0,0,0,0,0,0,0,0,0,0,0,0,0],"id":4,"left_children":[1,3,5,7,9,11,-1,13,15,17,19,21,23,-1,-1,-1,-1,25,27,29,31,33,35,37,39,-1,-1,-1,-1,-1,-1,-1,-1,-1,-1,-1,-1,-1,-1,-1,-1],"loss_changes":[4.2967794E10,1.0624051E10,5.1264717E9,5.656924E8,1.4429998E9,3.7023212E9,0E0,1.609728E7,1.302528E7,1.9680307E8,5.1406704E8,4.1408563E8,2.046679E9,0E0,0E0,0E0,0E0,8.084915E7,8.154266E7,3.568915E7,4.2119296E8,3.956672E8,2.0811936E8,4.8121446E8,6.151126E8,0E0,0E0,0E0,0E0,0E0,0E0,0E0,0E0,0E0,0E0,0E0,0E0,0E0,0E0,0E0,0E0],"parents":[2147483647,0,0,1,1,2,2,3,3,4,4,5,5,7,7,8,8,9,9,10,10,11,11,12,12,17,17,18,18,19,19,20,20,21,21,22,22,23,23,24,24],"right_children":[2,4,6,8,10,12,-1,14,16,18,20,22,24,-1,-1,-1,-1,26,28,30,32,34,36,38,40,-1,-1,-1,-1,-1,-1,-1,-1,-1,-1,-1,-1,-1,-1,-1,-1],"split_conditions":[2.1080508E4,8.849016E3,4.6752082E4,3.30253E3,1.509825E4,2.927739E4,3.017145E3,3.4078386E3,1.145945E4,1.2404229E4,1.4499573E4,4E0,5E0,-7.623781E2,-2.0439131E2,-5.038605E2,-1.9208612E2,4.4719478E3,4.491651E3,1.063241E4,5E0,2.5947986E4,2.484148E4,3.397978E4,4.078296E4,-3.4578424E2,5.7814648E1,-1.6867764E2,-2.8477133E2,-7.31576E1,-2.6181796E2,7.476003E1,-2.0526561E2,2.1061816E2,4.5712695E2,3.501143E1,2.3675806E2,6.3065735E2,8.873831E2,2.511776E2,9.20392E2],"split_indices":[9,9,10,5,7,9,0,10,5,9,9,0,0,0,0,0,0,12,10,8,0,9,5,9,5,0,0,0,0,0,0,0,0,0,0,0,0,0,0,0,0],"split_type":[0,0,0,0,0,0,0,0,0,0,0,0,0,0,0,0,0,0,0,0,0,0,0,0,0,0,0,0,0,0,0,0,0,0,0,0,0,0,0,0,0],"sum_hessian":[6.7E2,3.91E2,2.79E2,1.35E2,2.56E2,2.78E2,1E0,1E2,3.5E1,1.36E2,1.2E2,1.22E2,1.56E2,9.9E1,1E0,3.3E1,2E0,5.1E1,8.5E1,2.2E1,9.8E1,7.1E1,5.1E1,1.12E2,4.4E1,5E1,1E0,6E1,2.5E1,4E0,1.8E1,8.3E1,1.5E1,4E1,3.1E1,2.7E1,2.4E1,7.2E1,4E1,4.1E1,3E0],"tree_param":{"num_deleted":"0","num_feature":"13","num_nodes":"41","size_leaf_vector":"1"}},{"base_weights":[3.2162956E1,-7.8377427E3,7.403019E3,-1.4097942E4,-4.4798066E3,3.2216145E3,1.2384437E4,-7.1619135E2,-3.8411832E2,-6.1984243E3,-2.2381694E3,1.6209023E3,6.3476904E3,1.1713836E4,2.9417163E3,-7.9172017E3,-5.1714263E3,-5.1357794E2,-4.5535283E3,2.9543086E3,-1.8317167E3,8.368968E3,3.6196328E3,1.468963E4,7.4972524E3,-4.0796957E2,5.636929E1,-3.7566858E2,-2.3982207E2,2.4401953E2,-4.5931103E1,-1.3194792E2,-2.639905E2,8.716321E1,2.6405487E2,-1.768196E2,7.281387E1,4.3493066E2,-7.921602E1,1.9549016E2,-9.922201E0,6.78754E2,9.925003E2,3.3326746E2,9.4666956E2],"categories":[],"categories_nodes":[],"categories_segments":[],"categories_sizes":[],"default_left":[0,0,0,0,0,0,0,0,0,0,0,0,0,0,0,0,0,0,0,0,0,0,0,0,0,0,0,0,0,0,0,0,0,0,0,0,0,0,0,0,0,0,0,0,0],"id":5,"left_children":[1,3,5,7,9,11,13,-1,-1,15,17,19,21,23,-1,25,27,29,31,33,35,37,39,41,43,-1,-1,-1,-1,-1,-1,-1,-1,-1,-1,-1,-1,-1,-1,-1,-1,-1,-1,-1,-1],"loss_changes":[3.8981353E10,6.7687834E9,7.187876E9,5.3714944E7,8.0671334E8,9.404609E8,4.2324152E9,0E0,0E0,1.7087846E8,3.7300794E8,5.900869E8,3.22614E8,1.8598543E9,0E0,1.0339046E8,3.2461696E7,1.2464698E8,4.168749E7,2.5003533E8,2.069286E8,1.3189939E8,3.2904768E7,2.5391923E8,5.1122432E8,0E0,0E0,0E0,0E0,0E0,0E0,0E0,0E0,0E0,0E0,0E0,0E0,0E0,0E0,0E0,0E0,0E0,0E0,0E0,0E0],"parents":[2147483647,0,0,1,1,2,2,3,3,4,4,5,5,6,6,9,9,10,10,11,11,12,12,13,13,15,15,16,16,17,17,18,18,19,19,20,20,21,21,22,22,23,23,24,24],"right_children":[2,4,6,8,10,12,14,-1,-1,16,18,20,22,24,-1,26,28,30,32,34,36,38,40,42,44,-1,-1,-1,-1,-1,-1,-1,-1,-1,-1,-1,-1,-1,-1,-1,-1,-1,-1,-1,-1],"split_conditions":[1.7649418E4,1.7664734E3,2.927739E4,3.4078386E3,1.4064041E4,2.4928416E4,4.6752082E4,-7.1619135E2,-3.8411832E2,1.046773E4,4E0,5E0,4E0,4E0,2.9417163E3,4.4271543E3,7.35657E3,5E0,5E0,5.7019507E3,1.922752E4,4.078296E4,2.3728621E4,3.6509625E4,4.4686004E4,-4.0796957E2,5.636929E1,-3.7566858E2,-2.3982207E2,2.4401953E2,-4.5931103E1,-1.3194792E2,-2.639905E2,8.716321E1,2.6405487E2,-1.768196E2,7.281387E1,4.3493066E2,-7.921602E1,1.9549016E2,-9.922201E0,6.78754E2,9.925003E2,3.3326746E2,9.4666956E2],"split_indices":[9,11,9,10,9,9,10,0,0,9,0,0,0,0,0,12,6,1,0,10,5,6,12,9,9,0,0,0,0,0,0,0,0,0,0,0,0,0,0,0,0,0,0,0,0],"split_type":[0,0,0,0,0,0,0,0,0,0,0,0,0,0,0,0,0,0,0,0,0,0,0,0,0,0,0,0,0,0,0,0,0,0,0,0,0,0,0,0,0,0,0,0,0],"sum_hessian":[6.7E2,3.24E2,3.46E2,1.12E2,2.12E2,1.89E2,1.57E2,1.07E2,5E0,1.19E2,9.3E1,1.26E2,6.3E1,1.56E2,1E0,4.2E1,7.7E1,5.4E1,3.9E1,9.1E1,3.5E1,3.5E1,2.8E1,9E1,6.6E1,4.1E1,1E0,8E0,6.9E1,3E0,5.1E1,1.2E1,2.7E1,6.1E1,3E1,2.3E1,1.2E1,3.4E1,1E0,2.6E1,2E0,7.7E1,1.3E1,6.3E1,3E0],"tree_param":{"num_deleted":"0","num_feature":"13","num_nodes":"45","size_leaf_vector":"1"}},{"base_weights":[3.7136215E1,-5.836107E3,9.00142E3,-1.2440113E4,-2.3891182E3,8.602456E3,2.8681736E3,-1.3722426E4,-8.800276E3,-5.0996333E3,-6.391593E2,4.858542E3,1.1146941E4,-6.891889E2,-1.8967857E2,-4.68507E2,-2.9298044E2,-6.9287407E3,-4.692954E3,7.4666064E2,-4.104853E3,5.96675E3,2.125494E3,1.3224772E4,5.681567E3,-6.3356056E1,-3.6016983E2,-2.3838914E2,4.7299072E1,1.0689964E1,2.3448941E2,-2.5045015E2,-6.774223E1,1.9543266E2,3.710745E2,-9.630101E0,1.7296458E2,5.6986975E2,8.077921E2,2.2265111E2,8.5804474E2],"categories":[],"categories_nodes":[],"categories_segments":[],"categories_sizes":[],"default_left":[0,0,0,0,0,0,0,0,0,0,0,0,0,0,0,0,0,0,0,0,0,0,0,0,0,0,0,0,0,0,0,0,0,0,0,0,0,0,0,0,0],"id":6,"left_children":[1,3,5,7,9,11,-1,13,15,17,19,21,23,-1,-1,-1,-1,25,27,29,31,33,35,37,39,-1,-1,-1,-1,-1,-1,-1,-1,-1,-1,-1,-1,-1,-1,-1,-1],"loss_changes":[3.5380294E10,9.212438E9,4.638931E9,5.2800717E8,1.2679424E9,2.4703222E9,0E0,9.23648E6,1.044992E7,4.558899E7,7.9072864E8,3.1745536E8,1.707774E9,0E0,0E0,0E0,0E0,1.7307456E7,4.206413E7,2.4693187E8,1.1007539E8,2.0152934E8,1.0269802E8,4.211118E8,5.582111E8,0E0,0E0,0E0,0E0,0E0,0E0,0E0,0E0,0E0,0E0,0E0,0E0,0E0,0E0,0E0,0E0],"parents":[2147483647,0,0,1,1,2,2,3,3,4,4,5,5,7,7,8,8,9,9,10,10,11,11,12,12,17,17,18,18,19,19,20,20,21,21,22,22,23,23,24,24],"right_children":[2,4,6,8,10,12,-1,14,16,18,20,22,24,-1,-1,-1,-1,26,28,30,32,34,36,38,40,-1,-1,-1,-1,-1,-1,-1,-1,-1,-1,-1,-1,-1,-1,-1,-1],"split_conditions":[2.1728484E4,8.976442E3,4.6752082E4,3.30253E3,1.4499573E4,2.927739E4,2.8681736E3,3.4078386E3,8.64087E3,7.35657E3,5E0,5E0,5E0,-6.891889E2,-1.8967857E2,-4.68507E2,-2.9298044E2,2.61126E3,1.4462004E4,6.0300483E3,2.002074E4,2.4928416E4,2.078705E4,3.397978E4,4.078296E4,-6.3356056E1,-3.6016983E2,-2.3838914E2,4.7299072E1,1.0689964E1,2.3448941E2,-2.5045015E2,-6.774223E1,1.9543266E2,3.710745E2,-9.630101E0,1.7296458E2,5.6986975E2,8.077921E2,2.2265111E2,8.5804474E2],"split_indices":[9,9,10,5,9,9,0,10,5,6,0,0,0,0,0,0,0,7,9,10,9,9,5,9,5,0,0,0,0,0,0,0,0,0,0,0,0,0,0,0,0],"split_type":[0,0,0,0,0,0,0,0,0,0,0,0,0,0,0,0,0,0,0,0,0,0,0,0,0,0,0,0,0,0,0,0,0,0,0,0,0,0,0,0,0],"sum_hessian":[6.7E2,4.05E2,2.65E2,1.38E2,2.67E2,2.64E2,1E0,1E2,3.8E1,1.04E2,1.63E2,1.08E2,1.56E2,9.9E1,1E0,3E1,8E0,1.6E1,8.8E1,1.17E2,4.6E1,7.6E1,3.2E1,1.12E2,4.4E1,1E0,1.5E1,8.7E1,1E0,1.04E2,1.3E1,3.4E1,1.2E1,3.3E1,4.3E1,1.2E1,2E1,7.2E1,4E1,4.1E1,3E0],"tree_param":{"num_deleted":"0","num_feature":"13","num_nodes":"41","size_leaf_vector":"1"}},{"base_weights":[4.0835796E1,-7.098329E3,6.727256E3,-1.2749102E4,-4.067176E3,2.9340754E3,1.1246098E4,-6.473903E2,-3.5237857E2,-5.5072563E3,-1.9182402E3,1.4920942E3,5.7496616E3,1.0605253E4,2.7964692E3,-7.1731846E3,-4.5997017E3,-2.2765337E2,-4.0922168E3,2.7116765E3,-1.666063E3,7.5996333E3,3.2548806E3,1.3321013E4,6.7583965E3,-3.700997E2,6.0919777E1,-2.579516E2,-1.7011476E2,2.2887292E2,-3.1587769E1,-1.3241592E2,-2.6296548E2,6.695571E1,2.231265E2,-1.6202098E2,6.843E1,3.9578186E2,-8.651245E1,2.1914299E2,9.549546E1,6.139205E2,9.089152E2,2.9878354E2,8.796209E2],"categories":[],"categories_nodes":[],"categories_segments":[],"categories_sizes":[],"default_left":[0,0,0,0,0,0,0,0,0,0,0,0,0,0,0,0,0,0,0,0,0,0,0,0,0,0,0,0,0,0,0,0,0,0,0,0,0,0,0,0,0,0,0,0,0],"id":7,"left_children":[1,3,5,7,9,11,13,-1,-1,15,17,19,21,23,-1,25,27,29,31,33,35,37,39,41,43,-1,-1,-1,-1,-1,-1,-1,-1,-1,-1,-1,-1,-1,-1,-1,-1,-1,-1,-1,-1],"loss_changes":[3.2078246E10,5.5148616E9,5.9148544E9,3.6767744E7,6.485942E8,7.628251E8,3.9311933E9,0E0,0E0,1.5901978E8,3.1881917E8,4.9367514E8,2.7064166E8,1.5501722E9,0E0,9.158144E7,3.937587E7,9.99796E7,5.0107904E7,2.1511443E8,1.7642994E8,1.1983398E8,3.5625024E7,2.376448E8,4.6303795E8,0E0,0E0,0E0,0E0,0E0,0E0,0E0,0E0,0E0,0E0,0E0,0E0,0E0,0E0,0E0,0E0,0E0,0E0,0E0,0E0],"parents":[2147483647,0,0,1,1,2,2,3,3,4,4,5,5,6,6,9,9,10,10,11,11,12,12,13,13,15,15,16,16,17,17,18,18,19,19,20,20,21,21,22,22,23,23,24,24],"right_children":[2,4,6,8,10,12,14,-1,-1,16,18,20,22,24,-1,26,28,30,32,34,36,38,40,42,44,-1,-1,-1,-1,-1,-1,-1,-1,-1,-1,-1,-1,-1,-1,-1,-1,-1,-1,-1,-1],"split_conditions":[1.7649418E4,1.7664734E3,2.927739E4,3.4078386E3,1.4389791E4,2.4928416E4,4.6752082E4,-6.473903E2,-3.5237857E2,1.046773E4,4E0,5E0,4E0,4E0,2.7964692E3,4.4271543E3,1.329603E4,5E0,4.0057107E3,5.3684746E3,1.922752E4,4.078296E4,2.316889E4,3.6509625E4,4.4686004E4,-3.700997E2,6.0919777E1,-2.579516E2,-1.7011476E2,2.2887292E2,-3.1587769E1,-1.3241592E2,-2.6296548E2,6.695571E1,2.231265E2,-1.6202098E2,6.843E1,3.9578186E2,-8.651245E1,2.1914299E2,9.549546E1,6.139205E2,9.089152E2,2.9878354E2,8.796209E2],"split_indices":[9,11,9,10,9,9,10,0,0,9,0,0,0,0,0,12,7,1,10,10,5,6,7,9,9,0,0,0,0,0,0,0,0,0,0,0,0,0,0,0,0,0,0,0,0],"split_type":[0,0,0,0,0,0,0,0,0,0,0,0,0,0,0,0,0,0,0,0,0,0,0,0,0,0,0,0,0,0,0,0,0,0,0,0,0,0,0,0,0,0,0,0,0],"sum_hessian":[6.7E2,3.24E2,3.46E2,1.12E2,2.12E2,1.89E2,1.57E2,1.07E2,5E0,1.26E2,8.6E1,1.26E2,6.3E1,1.56E2,1E0,4.2E1,8.4E1,4.9E1,3.7E1,9.1E1,3.5E1,3.5E1,2.8E1,9E1,6.6E1,4.1E1,1E0,5.5E1,2.9E1,3E0,4.6E1,1.8E1,1.9E1,5.2E1,3.9E1,2.3E1,1.2E1,3.4E1,1E0,1.4E1,1.4E1,7.7E1,1.3E1,6.3E1,3E0],"tree_param":{"num_deleted":"0","num_feature":"13","num_nodes":"45","size_leaf_vector":"1"}},{"base_weights":[4.5326218E1,-5.2829487E3,8.1777856E3,-1.1349239E4,-2.2191167E3,7.7970894E3,2.7265574E3,-1.2547106E4,-8.369558E3,-4.1774795E3,-1.5572166E2,6.3168247E3,1.3334159E4,-6.302819E2,-1.7612715E2,-4.4716452E2,-2.6360864E2,-5.6038296E3,-3.338646E3,-3.8081558E3,6.0249194E2,7.849716E3,2.5911477E3,1.5921111E4,1.0270987E4,-1.6995592E2,-3.2257944E2,1.6080518E2,-1.7242154E2,-4.623713E1,-2.1832597E2,6.231263E1,-1.5152173E2,2.074418E2,4.7571744E2,2.2526573E2,7.27074E1,8.0999664E2,2.0982335E2,5.9007324E2,1.3461613E2],"categories":[],"categories_nodes":[],"categories_segments":[],"categories_sizes":[],"default_left":[0,0,0,0,0,0,0,0,0,0,0,0,0,0,0,0,0,0,0,0,0,0,0,0,0,0,0,0,0,0,0,0,0,0,0,0,0,0,0,0,0],"id":8,"left_children":[1,3,5,7,9,11,-1,13,15,17,19,21,23,-1,-1,-1,-1,25,27,29,31,33,35,37,39,-1,-1,-1,-1,-1,-1,-1,-1,-1,-1,-1,-1,-1,-1,-1,-1],"loss_changes":[2.9118962E10,7.52077E9,4.268798E9,3.8040576E8,1.0944268E9,2.0877978E9,0E0,5.777408E6,2.7486208E7,1.4760013E8,3.7061462E8,1.1846938E9,2.7230925E8,0E0,0E0,0E0,0E0,7.152346E7,7.585574E7,3.2991936E7,2.6337629E8,8.784568E8,1.3056227E8,2.3551488E7,2.9299814E8,0E0,0E0,0E0,0E0,0E0,0E0,0E0,0E0,0E0,0E0,0E0,0E0,0E0,0E0,0E0,0E0],"parents":[2147483647,0,0,1,1,2,2,3,3,4,4,5,5,7,7,8,8,9,9,10,10,11,11,12,12,17,17,18,18,19,19,20,20,21,21,22,22,23,23,24,24],"right_children":[2,4,6,8,10,12,-1,14,16,18,20,22,24,-1,-1,-1,-1,26,28,30,32,34,36,38,40,-1,-1,-1,-1,-1,-1,-1,-1,-1,-1,-1,-1,-1,-1,-1,-1],"split_conditions":[2.1728484E4,8.849016E3,4.6752082E4,2.19957E3,1.509825E4,3.397978E4,2.7265574E3,3.4078386E3,8.64087E3,1.2295097E4,1.4499573E4,5E0,3E0,-6.302819E2,-1.7612715E2,-4.4716452E2,-2.6360864E2,2E0,2E0,1.063241E4,5E0,2.7097748E4,5.376754E3,5.038067E4,3.56101E4,-1.6995592E2,-3.2257944E2,1.6080518E2,-1.7242154E2,-4.623713E1,-2.1832597E2,6.231263E1,-1.5152173E2,2.074418E2,4.7571744E2,2.2526573E2,7.27074E1,8.0999664E2,2.0982335E2,5.9007324E2,1.3461613E2],"split_indices":[9,9,10,5,7,9,0,10,5,9,9,0,0,0,0,0,0,0,1,8,0,9,10,8,11,0,0,0,0,0,0,0,0,0,0,0,0,0,0,0,0],"split_type":[0,0,0,0,0,0,0,0,0,0,0,0,0,0,0,0,0,0,0,0,0,0,0,0,0,0,0,0,0,0,0,0,0,0,0,0,0,0,0,0,0],"sum_hessian":[6.7E2,4.05E2,2.65E2,1.35E2,2.7E2,2.64E2,1E0,9.4E1,4.1E1,1.38E2,1.32E2,2.1E2,5.4E1,9.3E1,1E0,3.3E1,8E0,4.9E1,8.9E1,2.2E1,1.1E2,1.48E2,6.2E1,2.7E1,2.7E1,1.5E1,3.4E1,1E0,8.8E1,4E0,1.8E1,9.4E1,1.6E1,4.7E1,1.01E2,2.2E1,4E1,2.6E1,1E0,2.2E1,5E0],"tree_param":{"num_deleted":"0","num_feature":"13","num_nodes":"41","size_leaf_vector":"1"}},{"base_weights":[4.764596E1,-6.4288677E3,6.113407E3,-1.1530603E4,-3.6921309E3,2.6471946E3,1.0242945E4,-6.033889E2,-4.6344913E2,-5.076523E3,-1.885544E3,4.7971636E3,1.0738188E3,9.63089E3,2.6583933E3,-6.4865034E3,-4.2341426E3,-4.393097E2,-3.8269775E3,3.5303816E3,7.442869E3,-2.0352672E3,2.473094E3,1.1442383E4,4.868008E3,-3.3507794E2,6.3645657E1,-1.901122E2,-2.9684738E2,2.1795348E2,-3.999838E1,-1.3378635E2,-2.4222209E2,2.0149243E2,-2.7078949E1,5.4451923E1,3.9740134E2,-1.3632361E2,2.0015947E2,-4.961179E0,2.1522514E2,4.9148468E2,7.017338E2,1.8668945E2,7.78015E2],"categories":[],"categories_nodes":[],"categories_segments":[],"categories_sizes":[],"default_left":[0,0,0,0,0,0,0,0,0,0,0,0,0,0,0,0,0,0,0,0,0,0,0,0,0,0,0,0,0,0,0,0,0,0,0,0,0,0,0,0,0,0,0,0,0],"id":9,"left_children":[1,3,5,7,9,11,13,-1,-1,15,17,19,21,23,-1,25,27,29,31,33,35,37,39,41,43,-1,-1,-1,-1,-1,-1,-1,-1,-1,-1,-1,-1,-1,-1,-1,-1,-1,-1,-1,-1],"loss_changes":[2.6399527E10,4.495112E9,4.9397924E9,2.5426944E7,5.23146E8,6.375635E8,3.638995E9,0E0,0E0,1.1506432E8,2.6224893E8,2.4184653E8,4.879353E8,1.2988846E9,0E0,8.028467E7,3.47904E7,9.866862E7,3.389184E7,1.1607578E8,7.158643E7,1.5699797E8,3.631713E8,3.344466E8,4.87634E8,0E0,0E0,0E0,0E0,0E0,0E0,0E0,0E0,0E0,0E0,0E0,0E0,0E0,0E0,0E0,0E0,0E0,0E0,0E0,0E0],"parents":[2147483647,0,0,1,1,2,2,3,3,4,4,5,5,6,6,9,9,10,10,11,11,12,12,13,13,15,15,16,16,17,17,18,18,19,19,20,20,21,21,22,22,23,23,24,24],"right_children":[2,4,6,8,10,12,14,-1,-1,16,18,20,22,24,-1,26,28,30,32,34,36,38,40,42,44,-1,-1,-1,-1,-1,-1,-1,-1,-1,-1,-1,-1,-1,-1,-1,-1,-1,-1,-1,-1],"split_conditions":[1.7649418E4,1.7664734E3,2.927739E4,4.4198E2,1.4064041E4,3E0,4.6752082E4,-6.033889E2,-4.6344913E2,1.046773E4,4E0,2.5947986E4,1.916907E4,5E0,2.6583933E3,4.4271543E3,4.9365576E3,5E0,4.0057107E3,3.087856E4,3.983029E3,2.3894623E4,2.5315E4,3.397978E4,4.078296E4,-3.3507794E2,6.3645657E1,-1.901122E2,-2.9684738E2,2.1795348E2,-3.999838E1,-1.3378635E2,-2.4222209E2,2.0149243E2,-2.7078949E1,5.4451923E1,3.9740134E2,-1.3632361E2,2.0015947E2,-4.961179E0,2.1522514E2,4.9148468E2,7.017338E2,1.8668945E2,7.78015E2],"split_indices":[9,11,9,5,9,0,10,0,0,9,0,9,5,0,0,12,10,1,10,6,10,9,8,9,5,0,0,0,0,0,0,0,0,0,0,0,0,0,0,0,0,0,0,0,0],"split_type":[0,0,0,0,0,0,0,0,0,0,0,0,0,0,0,0,0,0,0,0,0,0,0,0,0,0,0,0,0,0,0,0,0,0,0,0,0,0,0,0,0,0,0,0,0],"sum_hessian":[6.7E2,3.24E2,3.46E2,1.12E2,2.12E2,1.89E2,1.57E2,8.7E1,2.5E1,1.19E2,9.3E1,7.9E1,1.1E2,1.56E2,1E0,4.2E1,7.7E1,5.4E1,3.9E1,5.5E1,2.4E1,3.4E1,7.6E1,1.12E2,4.4E1,4.1E1,1E0,6.4E1,1.3E1,3E0,5.1E1,2E1,1.9E1,4.9E1,6E0,2E0,2.2E1,3.1E1,3E0,3.2E1,4.4E1,7.2E1,4E1,4.1E1,3E0],"tree_param":{"num_deleted":"0","num_feature":"13","num_nodes":"45","size_leaf_vector":"1"}},{"base_weights":[5.076801E1,-4.784548E3,7.4307964E3,-1.0175801E4,-1.9704858E3,7.0676016E3,2.5919336E3,-1.1341514E4,-7.4887217E3,-3.7366658E3,-1.496515E2,5.7199863E3,1.2109042E4,-5.6970123E2,-1.6013774E2,-3.9791998E2,-2.3628719E2,-4.9885884E3,-2.9971104E3,-3.4463804E3,5.348027E2,7.1163154E3,2.3267634E3,1.4484806E4,9.300813E3,-1.462802E2,-2.906341E2,1.5140445E2,-1.5505856E2,-3.828436E1,-1.9852188E2,5.62749E1,-1.3988004E2,2.5196687E2,4.82596E2,2.0731194E2,6.246659E1,4.759524E2,7.997578E2,5.3787067E2,1.0835231E2],"categories":[],"categories_nodes":[],"categories_segments":[],"categories_sizes":[],"default_left":[0,0,0,0,0,0,0,0,0,0,0,0,0,0,0,0,0,0,0,0,0,0,0,0,0,0,0,0,0,0,0,0,0,0,0,0,0,0,0,0,0],"id":10,"left_children":[1,3,5,7,9,11,-1,13,15,17,19,21,23,-1,-1,-1,-1,25,27,29,31,33,35,37,39,-1,-1,-1,-1,-1,-1,-1,-1,-1,-1,-1,-1,-1,-1,-1,-1],"loss_changes":[2.3980032E10,6.1395046E9,3.9238584E9,3.50464E8,8.613075E8,1.7311263E9,0E0,4.108288E6,2.0787456E7,1.1096653E8,3.019523E8,9.831726E8,2.322222E8,0E0,0E0,0E0,0E0,6.629888E7,6.4565376E7,2.9271168E7,2.2164496E8,7.3605274E8,1.1832262E8,5.7742336E7,2.676375E8,0E0,0E0,0E0,0E0,0E0,0E0,0E0,0E0,0E0,0E0,0E0,0E0,0E0,0E0,0E0,0E0],"parents":[2147483647,0,0,1,1,2,2,3,3,4,4,5,5,7,7,8,8,9,9,10,10,11,11,12,12,17,17,18,18,19,19,20,20,21,21,22,22,23,23,24,24],"right_children":[2,4,6,8,10,12,-1,14,16,18,20,22,24,-1,-1,-1,-1,26,28,30,32,34,36,38,40,-1,-1,-1,-1,-1,-1,-1,-1,-1,-1,-1,-1,-1,-1,-1,-1],"split_conditions":[2.1728484E4,8.976442E3,4.6752082E4,2.19957E3,1.509825E4,3.397978E4,2.5919336E3,3.4078386E3,8.64087E3,1.2404229E4,1.4499573E4,5E0,3E0,-5.6970123E2,-1.6013774E2,-3.9791998E2,-2.3628719E2,2E0,2E0,1.063241E4,5E0,2.974469E4,5.376754E3,6.52863E3,3.56101E4,-1.462802E2,-2.906341E2,1.5140445E2,-1.5505856E2,-3.828436E1,-1.9852188E2,5.62749E1,-1.3988004E2,2.5196687E2,4.82596E2,2.0731194E2,6.246659E1,4.759524E2,7.997578E2,5.3787067E2,1.0835231E2],"split_indices":[9,9,10,5,7,9,0,10,5,9,9,0,0,0,0,0,0,0,1,8,0,9,10,10,11,0,0,0,0,0,0,0,0,0,0,0,0,0,0,0,0],"split_type":[0,0,0,0,0,0,0,0,0,0,0,0,0,0,0,0,0,0,0,0,0,0,0,0,0,0,0,0,0,0,0,0,0,0,0,0,0,0,0,0,0],"sum_hessian":[6.7E2,4.05E2,2.65E2,1.38E2,2.67E2,2.64E2,1E0,9.4E1,4.4E1,1.35E2,1.32E2,2.1E2,5.4E1,9.3E1,1E0,3.6E1,8E0,4.8E1,8.7E1,2.2E1,1.1E2,1.48E2,6.2E1,2.7E1,2.7E1,1.5E1,3.3E1,1E0,8.6E1,4E0,1.8E1,9.4E1,1.6E1,8.3E1,6.5E1,2.2E1,4E1,8E0,1.9E1,2.2E1,5E0],"tree_param":{"num_deleted":"0","num_feature":"13","num_nodes":"41","size_leaf_vector":"1"}},{"base_weights":[5.328642E1,-5.948014E3,5.444135E3,-1.0431271E4,-3.4598777E3,2.3092974E3,9.318305E3,-5.295828E2,-2.9029062E2,-5.1484263E3,-2.368982E3,1.1446611E3,4.7116714E3,8.733801E3,2.5271353E3,-5.2468677E3,6.571148E1,-1.5606884E3,-4.368816E3,2.1321196E3,-1.4060792E3,6.305326E3,2.57087E3,1.1020127E4,5.4981367E3,-3.0301678E2,-2.1048482E2,-1.5264462E2,-2.7344923E1,-1.2251856E1,-2.3020921E2,4.8199482E1,1.8520512E2,-1.3410353E2,6.2703175E1,2.4332283E2,4.7798712E2,2.6636508E2,9.583745E1,4.2917902E2,6.265329E2,2.3928592E2,7.761152E2],"categories":[],"categories_nodes":[],"categories_segments":[],"categories_sizes":[],"default_left":[0,0,0,0,0,0,0,0,0,0,0,0,0,0,0,0,0,0,0,0,0,0,0,0,0,0,0,0,0,0,0,0,0,0,0,0,0,0,0,0,0,0,0],"id":11,"left_children":[1,3,5,7,9,11,13,-1,-1,15,17,19,21,23,-1,25,-1,27,29,31,33,35,37,39,41,-1,-1,-1,-1,-1,-1,-1,-1,-1,-1,-1,-1,-1,-1,-1,-1,-1,-1],"loss_changes":[2.1740642E10,3.5111844E9,4.2777723E9,2.2337536E7,3.6726195E8,5.4579136E8,3.3657108E9,0E0,0E0,5.779123E7,1.9847117E8,3.4051043E8,2.0213862E8,1.1008614E9,0E0,4.114048E7,0E0,1.3750626E8,3.381363E7,1.7454842E8,1.3234761E8,1.220544E8,4.2077056E7,2.2736486E8,4.041888E8,0E0,0E0,0E0,0E0,0E0,0E0,0E0,0E0,0E0,0E0,0E0,0E0,0E0,0E0,0E0,0E0,0E0,0E0],"parents":[2147483647,0,0,1,1,2,2,3,3,4,4,5,5,6,6,9,9,10,10,11,11,12,12,13,13,15,15,17,17,18,18,19,19,20,20,21,21,22,22,23,23,24,24],"right_children":[2,4,6,8,10,12,14,-1,-1,16,18,20,22,24,-1,26,-1,28,30,32,34,36,38,40,42,-1,-1,-1,-1,-1,-1,-1,-1,-1,-1,-1,-1,-1,-1,-1,-1,-1,-1],"split_conditions":[1.740504E4,1.7664734E3,2.927739E4,3.4078386E3,1.2404229E4,2.4928416E4,4.6752082E4,-5.295828E2,-2.9029062E2,4.4719478E3,5E0,5E0,4E0,4E0,2.5271353E3,1.046773E4,6.571148E1,1.4462004E4,8.33394E3,5.3684746E3,1.922752E4,5.992769E3,1.74262E4,6.848586E3,4.4686004E4,-3.0301678E2,-2.1048482E2,-1.5264462E2,-2.7344923E1,-1.2251856E1,-2.3020921E2,4.8199482E1,1.8520512E2,-1.3410353E2,6.2703175E1,2.4332283E2,4.7798712E2,2.6636508E2,9.583745E1,4.2917902E2,6.265329E2,2.3928592E2,7.761152E2],"split_indices":[9,11,9,10,9,9,10,0,0,12,0,0,0,0,0,9,0,9,5,10,5,10,6,10,9,0,0,0,0,0,0,0,0,0,0,0,0,0,0,0,0,0,0],"split_type":[0,0,0,0,0,0,0,0,0,0,0,0,0,0,0,0,0,0,0,0,0,0,0,0,0,0,0,0,0,0,0,0,0,0,0,0,0,0,0,0,0,0,0],"sum_hessian":[6.7E2,3.17E2,3.53E2,1.12E2,2.05E2,1.96E2,1.57E2,1.07E2,5E0,7.9E1,1.26E2,1.33E2,6.3E1,1.56E2,1E0,7.8E1,1E0,9.1E1,3.5E1,9.6E1,3.7E1,3.5E1,2.8E1,9E1,6.6E1,4.1E1,3.7E1,3.6E1,5.5E1,2E0,3.3E1,5.6E1,4E1,2.5E1,1.2E1,2.6E1,9E0,4E0,2.4E1,3.7E1,5.3E1,6.3E1,3E0],"tree_param":{"num_deleted":"0","num_feature":"13","num_nodes":"43","size_leaf_vector":"1"}},{"base_weights":[5.681242E1,-4.3316694E3,6.754808E3,-9.2853E3,-1.8297306E3,6.40838E3,2.4639568E3,-1.0260631E4,-6.8581167E3,-3.437637E3,-1.3552968E2,5.163618E3,1.1067223E4,-5.153217E2,-1.4887703E2,-3.67369E2,-4.2477764E3,-4.6113765E3,-2.7473635E3,-2.1247288E3,8.384736E2,6.438563E3,2.0663098E3,1.3258355E4,8.480831E3,-9.121135E1,-2.3398076E2,-1.349976E2,-2.6767084E2,-1.04200066E2,-2.0023106E2,-2.0895686E2,-6.987877E1,9.044842E1,-6.875425E1,1.6932617E2,3.905847E2,1.909758E2,5.162032E1,5.2982324E2,8.2044366E2,4.92992E2,8.905793E1],"categories":[],"categories_nodes":[],"categories_segments":[],"categories_sizes":[],"default_left":[0,0,0,0,0,0,0,0,0,0,0,0,0,0,0,0,0,0,0,0,0,0,0,0,0,0,0,0,0,0,0,0,0,0,0,0,0,0,0,0,0,0,0],"id":12,"left_children":[1,3,5,7,9,11,-1,13,15,17,19,21,23,-1,-1,-1,25,27,29,31,33,35,37,39,41,-1,-1,-1,-1,-1,-1,-1,-1,-1,-1,-1,-1,-1,-1,-1,-1,-1,-1],"loss_changes":[1.9752655E10,5.0148444E9,3.602812E9,2.5158554E8,7.3776966E8,1.4796288E9,0E0,1.00352E6,2.2429824E7,9.994893E7,2.5946722E8,8.199132E8,1.9924992E8,0E0,0E0,0E0,8.8256E5,5.646368E7,6.671597E7,5.988965E7,1.958297E8,5.979822E8,1.1025341E8,6.094131E7,2.411273E8,0E0,0E0,0E0,0E0,0E0,0E0,0E0,0E0,0E0,0E0,0E0,0E0,0E0,0E0,0E0,0E0,0E0,0E0],"parents":[2147483647,0,0,1,1,2,2,3,3,4,4,5,5,7,7,8,8,9,9,10,10,11,11,12,12,16,16,17,17,18,18,19,19,20,20,21,21,22,22,23,23,24,24],"right_children":[2,4,6,8,10,12,-1,14,16,18,20,22,24,-1,-1,-1,26,28,30,32,34,36,38,40,42,-1,-1,-1,-1,-1,-1,-1,-1,-1,-1,-1,-1,-1,-1,-1,-1,-1,-1],"split_conditions":[2.1728484E4,8.849016E3,4.6752082E4,2.19957E3,1.509825E4,3.397978E4,2.4639568E3,3.4078386E3,8.64087E3,1.2295097E4,1.6328303E4,5E0,3E0,-5.153217E2,-1.4887703E2,-3.67369E2,9.07656E3,2E0,4.4423525E3,1.038134E4,4E0,2.7097748E4,5.376754E3,3.6509625E4,3.56101E4,-9.121135E1,-2.3398076E2,-1.349976E2,-2.6767084E2,-1.04200066E2,-2.0023106E2,-2.0895686E2,-6.987877E1,9.044842E1,-6.875425E1,1.6932617E2,3.905847E2,1.909758E2,5.162032E1,5.2982324E2,8.2044366E2,4.92992E2,8.905793E1],"split_indices":[9,9,10,5,7,9,0,10,5,9,9,0,0,0,0,0,5,0,10,5,0,9,10,9,11,0,0,0,0,0,0,0,0,0,0,0,0,0,0,0,0,0,0],"split_type":[0,0,0,0,0,0,0,0,0,0,0,0,0,0,0,0,0,0,0,0,0,0,0,0,0,0,0,0,0,0,0,0,0,0,0,0,0,0,0,0,0,0,0],"sum_hessian":[6.7E2,4.05E2,2.65E2,1.35E2,2.7E2,2.64E2,1E0,9.4E1,4.1E1,1.38E2,1.32E2,2.1E2,5.4E1,9.3E1,1E0,3.3E1,8E0,4.9E1,8.9E1,4.3E1,8.9E1,1.48E2,6.2E1,2.7E1,2.7E1,2E0,6E0,1.5E1,3.4E1,6E1,2.9E1,1E1,3.3E1,6.2E1,2.7E1,4.7E1,1.01E2,2.2E1,4E1,1.7E1,1E1,2.2E1,5E0],"tree_param":{"num_deleted":"0","num_feature":"13","num_nodes":"43","size_leaf_vector":"1"}},{"base_weights":[5.8260468E1,-4.120803E3,6.436612E3,-8.831012E3,-1.7418024E3,6.0982812E3,2.402358E3,-4.8772955E2,-6.5317E3,-3.2708423E3,-1.3068698E2,4.9092407E3,1.0548994E4,-3.4954077E2,-4.0715205E3,-4.388861E3,-2.6133782E3,-2.0248293E3,7.967903E2,6.120393E3,1.9668444E3,1.2643662E4,8.077577E3,-8.817098E1,-2.2395303E2,-1.2866959E2,-2.5466968E2,-9.907549E1,-1.9055324E2,-1.994588E2,-6.648758E1,8.5997734E1,-6.543932E1,2.1561624E2,4.164419E2,1.8184213E2,4.9102215E1,5.048038E2,7.8315076E2,4.6941412E2,8.534715E1],"categories":[],"categories_nodes":[],"categories_segments":[],"categories_sizes":[],"default_left":[0,0,0,0,0,0,0,0,0,0,0,0,0,0,0,0,0,0,0,0,0,0,0,0,0,0,0,0,0,0,0,0,0,0,0,0,0,0,0,0,0],"id":13,"left_children":[1,3,5,7,9,11,-1,-1,13,15,17,19,21,-1,23,25,27,29,31,33,35,37,39,-1,-1,-1,-1,-1,-1,-1,-1,-1,-1,-1,-1,-1,-1,-1,-1,-1,-1],"loss_changes":[1.791239E10,4.5340867E9,3.451778E9,2.2509568E8,6.671702E8,1.350615E9,0E0,0E0,1.8976E7,9.07031E7,2.3526429E8,7.399004E8,1.8259302E8,0E0,5.67328E5,5.0845504E7,6.055853E7,5.477184E7,1.7719248E8,5.590436E8,1.000392E8,5.7243136E7,2.1777562E8,0E0,0E0,0E0,0E0,0E0,0E0,0E0,0E0,0E0,0E0,0E0,0E0,0E0,0E0,0E0,0E0,0E0,0E0],"parents":[2147483647,0,0,1,1,2,2,3,3,4,4,5,5,8,8,9,9,10,10,11,11,12,12,14,14,15,15,16,16,17,17,18,18,19,19,20,20,21,21,22,22],"right_children":[2,4,6,8,10,12,-1,-1,14,16,18,20,22,-1,24,26,28,30,32,34,36,38,40,-1,-1,-1,-1,-1,-1,-1,-1,-1,-1,-1,-1,-1,-1,-1,-1,-1,-1],"split_conditions":[2.1728484E4,8.849016E3,4.6752082E4,2.19957E3,1.509825E4,3.397978E4,2.402358E3,-4.8772955E2,8.64087E3,1.2295097E4,1.6328303E4,5E0,3E0,-3.4954077E2,9.07656E3,2E0,4.4423525E3,1.038134E4,4E0,2.974469E4,5.376754E3,3.6509625E4,3.56101E4,-8.817098E1,-2.2395303E2,-1.2866959E2,-2.5466968E2,-9.907549E1,-1.9055324E2,-1.994588E2,-6.648758E1,8.5997734E1,-6.543932E1,2.1561624E2,4.164419E2,1.8184213E2,4.9102215E1,5.048038E2,7.8315076E2,4.6941412E2,8.534715E1],"split_indices":[9,9,10,5,7,9,0,0,5,9,9,0,0,0,5,0,10,5,0,9,10,9,11,0,0,0,0,0,0,0,0,0,0,0,0,0,0,0,0,0,0],"split_type":[0,0,0,0,0,0,0,0,0,0,0,0,0,0,0,0,0,0,0,0,0,0,0,0,0,0,0,0,0,0,0,0,0,0,0,0,0,0,0,0,0],"sum_hessian":[6.7E2,4.05E2,2.65E2,1.35E2,2.7E2,2.64E2,1E0,9.4E1,4.1E1,1.38E2,1.32E2,2.1E2,5.4E1,3.3E1,8E0,4.9E1,8.9E1,4.3E1,8.9E1,1.48E2,6.2E1,2.7E1,2.7E1,2E0,6E0,1.5E1,3.4E1,6E1,2.9E1,1E1,3.3E1,6.2E1,2.7E1,8.3E1,6.5E1,2.2E1,4E1,1.7E1,1E1,2.2E1,5E0],"tree_param":{"num_deleted":"0","num_feature":"13","num_nodes":"41","size_leaf_vector":"1"}},{"base_weights":[5.987848E1,-4.547891E3,5.313132E3,-8.397912E3,-2.1795015E3,5.0307715E3,2.3422988E3,-4.696401E2,-6.4397866E3,-3.5361252E3,-9.4236926E2,2.4663052E3,7.5631943E3,-3.4198285E2,-3.9026248E3,-4.2737524E3,-2.8519895E3,2.3123102E2,-3.8486533E3,3.7383384E3,8.728802E2,9.568911E3,4.726129E3,-8.523196E1,-2.1435506E2,-1.8039478E2,-3.013077E2,-1.4968417E2,-9.535022E0,-1.2129471E0,3.6113547E2,-5.115133E1,-2.150277E2,1.26609634E2,2.866135E2,-5.56646E1,1.0225931E2,3.6848886E2,5.4696234E2,2.0295078E2,7.109206E2],"categories":[],"categories_nodes":[],"categories_segments":[],"categories_sizes":[],"default_left":[0,0,0,0,0,0,0,0,0,0,0,0,0,0,0,0,0,0,0,0,0,0,0,0,0,0,0,0,0,0,0,0,0,0,0,0,0,0,0,0,0],"id":14,"left_children":[1,3,5,7,9,11,-1,-1,13,15,17,19,21,-1,23,25,27,29,31,33,35,37,39,-1,-1,-1,-1,-1,-1,-1,-1,-1,-1,-1,-1,-1,-1,-1,-1,-1,-1],"loss_changes":[1.6266241E10,3.2460662E9,3.4466806E9,2.0445696E8,3.7093363E8,2.0140667E9,0E0,0E0,2.3019776E7,4.130291E7,4.033662E8,3.1495853E8,8.481618E8,0E0,2.97696E5,3.5433856E7,2.1300224E7,1.5200669E8,3.901507E7,1.9471731E8,1.6759338E8,1.9361382E8,3.6656E8,0E0,0E0,0E0,0E0,0E0,0E0,0E0,0E0,0E0,0E0,0E0,0E0,0E0,0E0,0E0,0E0,0E0,0E0],"parents":[2147483647,0,0,1,1,2,2,3,3,4,4,5,5,8,8,9,9,10,10,11,11,12,12,14,14,15,15,16,16,17,17,18,18,19,19,20,20,21,21,22,22],"right_children":[2,4,6,8,10,12,-1,-1,14,16,18,20,22,-1,24,26,28,30,32,34,36,38,40,-1,-1,-1,-1,-1,-1,-1,-1,-1,-1,-1,-1,-1,-1,-1,-1,-1,-1],"split_conditions":[1.9445088E4,8.849016E3,4.6752082E4,4.4198E2,1.4462004E4,2.927739E4,2.3422988E3,-4.696401E2,8.64087E3,1.085851E4,5E0,4E0,4E0,-3.4198285E2,9.07656E3,3.7473455E3,3.141379E4,7.3098647E3,3.2464236E3,2.5947986E4,2.050827E4,6.848586E3,4.4686004E4,-8.523196E1,-2.1435506E2,-1.8039478E2,-3.013077E2,-1.4968417E2,-9.535022E0,-1.2129471E0,3.6113547E2,-5.115133E1,-2.150277E2,1.26609634E2,2.866135E2,-5.56646E1,1.0225931E2,3.6848886E2,5.4696234E2,2.0295078E2,7.109206E2],"split_indices":[9,9,10,5,9,9,0,0,5,7,0,0,0,0,5,10,8,10,10,9,5,10,9,0,0,0,0,0,0,0,0,0,0,0,0,0,0,0,0,0,0],"split_type":[0,0,0,0,0,0,0,0,0,0,0,0,0,0,0,0,0,0,0,0,0,0,0,0,0,0,0,0,0,0,0,0,0,0,0,0,0,0,0,0,0],"sum_hessian":[6.7E2,3.57E2,3.13E2,1.35E2,2.22E2,3.12E2,1E0,8.7E1,4.8E1,1.05E2,1.17E2,1.56E2,1.56E2,4E1,8E0,4.8E1,5.7E1,8.4E1,3.3E1,8.6E1,7E1,9E1,6.6E1,2E0,6E0,3.7E1,1.1E1,5.4E1,3E0,8.2E1,2E0,5E0,2.8E1,5.5E1,3.1E1,2.6E1,4.4E1,3.7E1,5.3E1,6.3E1,3E0],"tree_param":{"num_deleted":"0","num_feature":"13","num_nodes":"41","size_leaf_vector":"1"}},{"base_weights":[6.1315178E1,-4.8855024E3,4.5048936E3,-8.537793E3,-2.858346E3,4.2588745E3,2.2837415E3,-4.334327E2,-2.3796556E2,-3.7060442E3,-1.419738E3,1.2622979E3,6.6253906E3,-4.938903E3,-3.1565369E3,3.7769098E0,-3.262045E3,2.811868E3,1.6569188E2,9.1501045E3,4.6676377E3,-2.7011545E2,-1.0574599E2,-1.6881924E2,-2.130431E1,2.088157E2,-1.9684875E1,-9.822647E1,-1.8985909E2,1.5579439E2,-7.297736E1,3.1713098E2,-1.2867256E1,3.2109E2,5.5596924E2,1.687833E2,4.064786E2],"categories":[],"categories_nodes":[],"categories_segments":[],"categories_sizes":[],"default_left":[0,0,0,0,0,0,0,0,0,0,0,0,0,0,0,0,0,0,0,0,0,0,0,0,0,0,0,0,0,0,0,0,0,0,0,0,0],"id":15,"left_children":[1,3,5,7,9,11,-1,-1,-1,13,15,17,19,21,23,25,27,29,31,33,35,-1,-1,-1,-1,-1,-1,-1,-1,-1,-1,-1,-1,-1,-1,-1,-1],"loss_changes":[1.4771643E10,2.3299932E9,3.3909985E9,1.46176E7,2.459566E8,2.4949176E9,0E0,0E0,0E0,7.180301E7,2.0457133E8,2.6631912E8,9.310157E8,3.830323E7,5.378752E7,7.6275656E7,1.6148192E7,8.895645E7,2.4464766E8,3.8528102E8,4.7797504E8,0E0,0E0,0E0,0E0,0E0,0E0,0E0,0E0,0E0,0E0,0E0,0E0,0E0,0E0,0E0,0E0],"parents":[2147483647,0,0,1,1,2,2,3,3,4,4,5,5,9,9,10,10,11,11,12,12,13,13,14,14,15,15,16,16,17,17,18,18,19,19,20,20],"right_children":[2,4,6,8,10,12,-1,-1,-1,14,16,18,20,22,24,26,28,30,32,34,36,-1,-1,-1,-1,-1,-1,-1,-1,-1,-1,-1,-1,-1,-1,-1,-1],"split_conditions":[1.740504E4,1.7664734E3,4.6752082E4,3.4078386E3,1.4462004E4,2.7097748E4,2.2837415E3,-4.334327E2,-2.3796556E2,3E0,4E0,3E0,3E0,4.0064253E3,2.043148E4,5E0,5E0,3.44884E4,3E0,3.1716777E4,3.798273E4,-2.7011545E2,-1.0574599E2,-1.6881924E2,-2.130431E1,2.088157E2,-1.9684875E1,-9.822647E1,-1.8985909E2,1.5579439E2,-7.297736E1,3.1713098E2,-1.2867256E1,3.2109E2,5.5596924E2,1.687833E2,4.064786E2],"split_indices":[9,11,10,10,9,9,0,0,0,1,0,0,0,12,7,1,0,6,1,9,5,0,0,0,0,0,0,0,0,0,0,0,0,0,0,0,0],"split_type":[0,0,0,0,0,0,0,0,0,0,0,0,0,0,0,0,0,0,0,0,0,0,0,0,0,0,0,0,0,0,0,0,0,0,0,0,0],"sum_hessian":[6.7E2,3.17E2,3.53E2,1.12E2,2.05E2,3.52E2,1E0,1.07E2,5E0,1.28E2,7.7E1,1.56E2,1.96E2,3.7E1,9.1E1,4.4E1,3.3E1,6.4E1,9.2E1,8.4E1,1.12E2,3.1E1,6E0,8.4E1,7E0,3E0,4.1E1,1.1E1,2.2E1,6E1,4E0,5E0,8.7E1,3.7E1,4.7E1,8.3E1,2.9E1],"tree_param":{"num_deleted":"0","num_feature":"13","num_nodes":"37","size_leaf_vector":"1"}},{"base_weights":[6.240266E1,-3.5549832E3,5.583441E3,-7.5952173E3,-1.5142937E3,5.268413E3,2.226648E3,-4.2499957E2,-5.815312E3,-3.1754773E3,-4.111101E2,4.2123643E3,9.22401E3,-2.9788394E2,-8.232341E1,-4.321194E3,-2.7966868E3,8.888254E2,-2.0437533E3,5.275393E3,1.6313546E3,7.8844546E3,1.2945307E4,-2.5661404E2,-4.4868572E1,-1.2583577E2,-2.2129434E2,3.2395178E2,3.1379658E1,-1.47856E2,1.0400584E1,2.0474506E2,3.9148242E2,1.4045244E1,1.425262E2,4.638868E2,1.4939209E2,3.6087485E2,7.8115E2],"categories":[],"categories_nodes":[],"categories_segments":[],"categories_sizes":[],"default_left":[0,0,0,0,0,0,0,0,0,0,0,0,0,0,0,0,0,0,0,0,0,0,0,0,0,0,0,0,0,0,0,0,0,0,0,0,0,0,0],"id":16,"left_children":[1,3,5,7,9,11,-1,-1,13,15,17,19,21,-1,-1,23,25,27,29,31,33,35,37,-1,-1,-1,-1,-1,-1,-1,-1,-1,-1,-1,-1,-1,-1,-1,-1],"loss_changes":[1.3420877E10,3.335913E9,3.0292541E9,1.6958669E8,4.9532653E8,1.0681298E9,0E0,0E0,1.9272576E7,3.4785536E7,3.4987875E8,5.7031194E8,1.7210163E8,0E0,0E0,6.481987E7,2.7176192E7,1.3028535E8,1.5075331E8,4.1721472E8,1.0292416E8,2.6564096E8,8.66263E7,0E0,0E0,0E0,0E0,0E0,0E0,0E0,0E0,0E0,0E0,0E0,0E0,0E0,0E0,0E0,0E0],"parents":[2147483647,0,0,1,1,2,2,3,3,4,4,5,5,8,8,9,9,10,10,11,11,12,12,15,15,16,16,17,17,18,18,19,19,20,20,21,21,22,22],"right_children":[2,4,6,8,10,12,-1,-1,14,16,18,20,22,-1,-1,24,26,28,30,32,34,36,38,-1,-1,-1,-1,-1,-1,-1,-1,-1,-1,-1,-1,-1,-1,-1,-1],"split_conditions":[2.1728484E4,8.849016E3,4.6752082E4,4.4198E2,1.4499573E4,3.397978E4,2.226648E3,-4.2499957E2,1.145945E4,9.083836E3,4E0,5E0,4.152945E4,-2.9788394E2,-8.232341E1,4.0064253E3,6E0,2E0,1.916907E4,6.6762114E3,6E0,5E0,3.984142E4,-2.5661404E2,-4.4868572E1,-1.2583577E2,-2.2129434E2,3.2395178E2,3.1379658E1,-1.47856E2,1.0400584E1,2.0474506E2,3.9148242E2,1.4045244E1,1.425262E2,4.638868E2,1.4939209E2,3.6087485E2,7.8115E2],"split_indices":[9,9,10,5,9,9,0,0,5,11,0,0,9,0,0,12,0,1,5,10,0,0,5,0,0,0,0,0,0,0,0,0,0,0,0,0,0,0,0],"split_type":[0,0,0,0,0,0,0,0,0,0,0,0,0,0,0,0,0,0,0,0,0,0,0,0,0,0,0,0,0,0,0,0,0,0,0,0,0,0,0],"sum_hessian":[6.7E2,4.05E2,2.65E2,1.35E2,2.7E2,2.64E2,1E0,8.7E1,4.8E1,1.07E2,1.63E2,2.1E2,5.4E1,4.6E1,2E0,2.4E1,8.3E1,9.1E1,7.2E1,1.48E2,6.2E1,4.2E1,1.2E1,1.9E1,5E0,7.3E1,1E1,3E0,8.8E1,5.1E1,2.1E1,1.03E2,4.5E1,3E1,3.2E1,3.2E1,1E1,5E0,7E0],"tree_param":{"num_deleted":"0","num_feature":"13","num_nodes":"39","size_leaf_vector":"1"}},{"base_weights":[6.449715E1,-4.42686E3,4.098924E3,-7.723729E3,-2.5968938E3,3.864532E3,2.1709817E3,-3.9208554E2,-2.1563847E2,-4.0281091E3,-1.9085454E3,1.1341655E3,6.0208926E3,-4.1403994E3,8.176885E1,-1.2027732E3,-3.543514E3,2.55343E3,1.3001111E2,8.349625E3,4.2159087E3,-2.584221E2,-1.8496169E2,-1.08307915E2,-2.035732E1,1.9391731E1,-1.8748888E2,1.4231508E2,-7.651442E1,2.9811996E2,-1.3456456E1,3.0135297E2,5.140097E2,1.7596709E2,4.892701E2],"categories":[],"categories_nodes":[],"categories_segments":[],"categories_sizes":[],"default_left":[0,0,0,0,0,0,0,0,0,0,0,0,0,0,0,0,0,0,0,0,0,0,0,0,0,0,0,0,0,0,0,0,0,0,0],"id":17,"left_children":[1,3,5,7,9,11,-1,-1,-1,13,15,17,19,21,-1,23,25,27,29,31,33,-1,-1,-1,-1,-1,-1,-1,-1,-1,-1,-1,-1,-1,-1],"loss_changes":[1.2176699E10,1.8984873E9,3.0948285E9,1.1655168E7,1.9525811E8,2.0715131E9,0E0,0E0,0E0,4.8744E7,1.5844003E8,2.2341824E8,7.92854E8,1.0360576E7,0E0,7.576755E7,3.5511776E7,8.209597E7,2.1810317E8,3.1916954E8,4.039483E8,0E0,0E0,0E0,0E0,0E0,0E0,0E0,0E0,0E0,0E0,0E0,0E0,0E0,0E0],"parents":[2147483647,0,0,1,1,2,2,3,3,4,4,5,5,9,9,10,10,11,11,12,12,13,13,15,15,16,16,17,17,18,18,19,19,20,20],"right_children":[2,4,6,8,10,12,-1,-1,-1,14,16,18,20,22,-1,24,26,28,30,32,34,-1,-1,-1,-1,-1,-1,-1,-1,-1,-1,-1,-1,-1,-1],"split_conditions":[1.740504E4,1.7664734E3,4.6752082E4,3.4078386E3,1.18138E4,2.7097748E4,2.1709817E3,-3.9208554E2,-2.1563847E2,4.457455E3,5E0,3E0,3E0,2.098913E3,8.176885E1,1.4462004E4,8.33394E3,3.44884E4,3E0,3.208796E4,4.105486E4,-2.584221E2,-1.8496169E2,-1.08307915E2,-2.035732E1,1.9391731E1,-1.8748888E2,1.4231508E2,-7.651442E1,2.9811996E2,-1.3456456E1,3.0135297E2,5.140097E2,1.7596709E2,4.892701E2],"split_indices":[9,11,10,10,9,9,0,0,0,12,0,0,0,10,0,9,5,6,1,9,5,0,0,0,0,0,0,0,0,0,0,0,0,0,0],"split_type":[0,0,0,0,0,0,0,0,0,0,0,0,0,0,0,0,0,0,0,0,0,0,0,0,0,0,0,0,0,0,0,0,0,0,0],"sum_hessian":[6.7E2,3.17E2,3.53E2,1.12E2,2.05E2,3.52E2,1E0,1.07E2,5E0,6.5E1,1.4E2,1.56E2,1.96E2,6.4E1,1E0,9.9E1,4.1E1,6.4E1,9.2E1,8.4E1,1.12E2,1.6E1,4.8E1,4.4E1,5.5E1,2E0,3.9E1,6E1,4E0,5E0,8.7E1,4E1,4.4E1,1.01E2,1.1E1],"tree_param":{"num_deleted":"0","num_feature":"13","num_nodes":"35","size_leaf_vector":"1"}},{"base_weights":[6.5349884E1,-3.220386E3,5.080175E3,-6.867208E3,-1.3783629E3,4.7798423E3,2.116707E3,-3.846096E2,-5.245458E3,-2.5806685E3,-1.1145447E2,3.8093403E3,8.416134E3,-2.7892816E2,-3.1451511E3,-3.4605068E3,-2.0631953E3,-1.6507825E3,6.423443E2,4.788811E3,1.432349E3,7.130523E3,1.2021142E4,-2.3054214E2,-1.03384514E2,-8.9615135E1,-2.0621214E2,-7.256439E1,-1.619317E2,-6.590206E1,-2.8794495E2,3.466334E2,2.1030104E1,1.8535745E2,3.565102E2,7.0982866E0,1.3005614E2,4.2017145E2,1.3317892E2,3.3568942E2,7.249507E2],"categories":[],"categories_nodes":[],"categories_segments":[],"categories_sizes":[],"default_left":[0,0,0,0,0,0,0,0,0,0,0,0,0,0,0,0,0,0,0,0,0,0,0,0,0,0,0,0,0,0,0,0,0,0,0,0,0,0,0,0,0],"id":18,"left_children":[1,3,5,7,9,11,-1,-1,13,15,17,19,21,-1,23,25,27,29,31,33,35,37,39,-1,-1,-1,-1,-1,-1,-1,-1,-1,-1,-1,-1,-1,-1,-1,-1,-1,-1],"loss_changes":[1.1072688E10,2.7178516E9,2.7738107E9,1.4160794E8,4.1250256E8,9.0313216E8,0E0,0E0,1.6736128E7,5.614605E7,1.5538605E8,4.8438963E8,1.6918758E8,0E0,4.679232E6,4.797037E7,6.003315E7,5.255489E7,1.2261882E8,3.509243E8,9.464518E7,2.2211482E8,7.361907E7,0E0,0E0,0E0,0E0,0E0,0E0,0E0,0E0,0E0,0E0,0E0,0E0,0E0,0E0,0E0,0E0,0E0,0E0],"parents":[2147483647,0,0,1,1,2,2,3,3,4,4,5,5,8,8,9,9,10,10,11,11,12,12,14,14,15,15,16,16,17,17,18,18,19,19,20,20,21,21,22,22],"right_children":[2,4,6,8,10,12,-1,-1,14,16,18,20,22,-1,24,26,28,30,32,34,36,38,40,-1,-1,-1,-1,-1,-1,-1,-1,-1,-1,-1,-1,-1,-1,-1,-1,-1,-1],"split_conditions":[2.1728484E4,8.849016E3,4.6752082E4,4.4198E2,1.509825E4,3.397978E4,2.116707E3,-3.846096E2,8.64087E3,1.2295097E4,1.6328303E4,5E0,4.152945E4,-2.7892816E2,2.61126E3,2E0,4.4423525E3,1E0,2E0,6.6762114E3,6E0,5E0,3.984142E4,-2.3054214E2,-1.03384514E2,-8.9615135E1,-2.0621214E2,-7.256439E1,-1.619317E2,-6.590206E1,-2.8794495E2,3.466334E2,2.1030104E1,1.8535745E2,3.565102E2,7.0982866E0,1.3005614E2,4.2017145E2,1.3317892E2,3.3568942E2,7.249507E2],"split_indices":[9,9,10,5,7,9,0,0,5,9,9,0,9,0,6,0,10,4,1,10,0,0,5,0,0,0,0,0,0,0,0,0,0,0,0,0,0,0,0,0,0],"split_type":[0,0,0,0,0,0,0,0,0,0,0,0,0,0,0,0,0,0,0,0,0,0,0,0,0,0,0,0,0,0,0,0,0,0,0,0,0,0,0,0,0],"sum_hessian":[6.7E2,4.05E2,2.65E2,1.35E2,2.7E2,2.64E2,1E0,8.7E1,4.8E1,1.38E2,1.32E2,2.1E2,5.4E1,4E1,8E0,4.9E1,8.9E1,4.3E1,8.9E1,1.48E2,6.2E1,4.2E1,1.2E1,2E0,6E0,1.5E1,3.4E1,6E1,2.9E1,4.1E1,2E0,2E0,8.7E1,1.03E2,4.5E1,3E1,3.2E1,3.2E1,1E1,5E0,7E0],"tree_param":{"num_deleted":"0","num_feature":"13","num_nodes":"41","size_leaf_vector":"1"}},{"base_weights":[6.639805E1,-2.9959065E3,4.949276E3,-6.4742134E3,-1.2268865E3,4.648492E3,2.0637896E3,-7.022887E3,-4.150867E3,-2.5843762E3,-1.9014656E2,3.7154607E3,8.024672E3,-3.6559763E2,-2.83518E2,-2.9032031E3,-5.1218066E3,-3.9955334E3,-2.2933232E3,-3.9314468E2,3.0298126E2,5.0605684E3,1.9554293E3,6.786865E3,1.1501674E4,-1.7012367E2,-3.397959E1,-2.6716675E2,-5.051023E1,3.7539845E1,-2.299045E2,-2.0872224E2,-1.03196304E2,5.4360584E1,-5.943028E1,1.452474E2,3.39685E2,5.415286E1,1.7147171E2,3.9979944E2,1.27125305E2,3.217024E2,6.932342E2],"categories":[],"categories_nodes":[],"categories_segments":[],"categories_sizes":[],"default_left":[0,0,0,0,0,0,0,0,0,0,0,0,0,0,0,0,0,0,0,0,0,0,0,0,0,0,0,0,0,0,0,0,0,0,0,0,0,0,0,0,0,0,0],"id":19,"left_children":[1,3,5,7,9,11,-1,13,15,17,19,21,23,-1,-1,25,27,29,31,33,-1,35,37,39,41,-1,-1,-1,-1,-1,-1,-1,-1,-1,-1,-1,-1,-1,-1,-1,-1,-1,-1],"loss_changes":[1.0048197E10,2.533326E9,2.6380764E9,1.480402E8,3.8653363E8,7.8290586E8,0E0,1.936896E6,2.0261152E7,3.971283E7,2.0156693E8,4.7306035E8,1.5865165E8,0E0,0E0,1.4340456E7,8.264672E6,5.779091E7,3.496819E7,1.814598E8,0E0,4.0990157E8,1.1201501E8,2.0034406E8,6.6466944E7,0E0,0E0,0E0,0E0,0E0,0E0,0E0,0E0,0E0,0E0,0E0,0E0,0E0,0E0,0E0,0E0,0E0,0E0],"parents":[2147483647,0,0,1,1,2,2,3,3,4,4,5,5,7,7,8,8,9,9,10,10,11,11,12,12,15,15,16,16,17,17,18,18,19,19,21,21,22,22,23,23,24,24],"right_children":[2,4,6,8,10,12,-1,14,16,18,20,22,24,-1,-1,26,28,30,32,34,-1,36,38,40,42,-1,-1,-1,-1,-1,-1,-1,-1,-1,-1,-1,-1,-1,-1,-1,-1,-1,-1],"split_conditions":[2.2073152E4,8.976442E3,4.6752082E4,5.0259316E3,1.420798E4,3.397978E4,2.0637896E3,4.4198E2,4E0,6.77015E3,2.826882E4,4E0,4.152945E4,-3.6559763E2,-2.83518E2,8.29404E3,1.145945E4,6.64934E3,3E0,2E0,3.0298126E2,5.543227E3,2.75046E4,5E0,3.984142E4,-1.7012367E2,-3.397959E1,-2.6716675E2,-5.051023E1,3.7539845E1,-2.299045E2,-2.0872224E2,-1.03196304E2,5.4360584E1,-5.943028E1,1.452474E2,3.39685E2,5.415286E1,1.7147171E2,3.9979944E2,1.27125305E2,3.217024E2,6.932342E2],"split_indices":[9,9,10,9,6,9,0,5,0,7,5,0,9,0,0,5,5,5,1,0,0,10,6,0,5,0,0,0,0,0,0,0,0,0,0,0,0,0,0,0,0,0,0],"split_type":[0,0,0,0,0,0,0,0,0,0,0,0,0,0,0,0,0,0,0,0,0,0,0,0,0,0,0,0,0,0,0,0,0,0,0,0,0,0,0,0,0,0,0],"sum_hessian":[6.7E2,4.12E2,2.58E2,1.38E2,2.74E2,2.57E2,1E0,1.1E2,2.8E1,1.18E2,1.56E2,2.03E2,5.4E1,8.7E1,2.3E1,1.4E1,1.4E1,1.8E1,1E2,1.52E2,4E0,1.14E2,8.9E1,4.2E1,1.2E1,1.1E1,3E0,1.3E1,1E0,2E0,1.6E1,9E0,9.1E1,5.3E1,9.9E1,5.2E1,6.2E1,5.7E1,3.2E1,3.2E1,1E1,5E0,7E0],"tree_param":{"num_deleted":"0","num_feature":"13","num_nodes":"43","size_leaf_vector":"1"}},{"base_weights":[6.745794E1,-3.3885745E3,4.00756E3,-6.5033125E3,-1.8105109E3,3.7632144E3,2.0121947E3,-3.4752548E2,-5.1137173E3,-2.8437397E3,-7.2691406E2,1.8123297E3,5.6901294E3,-2.632545E2,-1.8449653E3,-3.4190752E3,-2.2506624E3,2.351742E2,-3.110755E3,2.7883582E3,5.9082526E2,7.8140244E3,4.0221855E3,-1.375018E2,-8.7060547E-1,-1.2820473E2,-2.219254E2,-1.4953175E2,-7.8661865E1,1.4966232E-1,3.290228E2,-2.556652E1,-1.7706499E2,1.0901278E2,2.675274E2,-5.240978E1,7.805541E1,4.145331E2,7.53493E1,1.6394785E2,4.289963E2],"categories":[],"categories_nodes":[],"categories_segments":[],"categories_sizes":[],"default_left":[0,0,0,0,0,0,0,0,0,0,0,0,0,0,0,0,0,0,0,0,0,0,0,0,0,0,0,0,0,0,0,0,0,0,0,0,0,0,0,0,0],"id":20,"left_children":[1,3,5,7,9,11,-1,-1,13,15,17,19,21,-1,23,25,27,29,31,33,35,37,39,-1,-1,-1,-1,-1,-1,-1,-1,-1,-1,-1,-1,-1,-1,-1,-1,-1,-1],"loss_changes":[9.150668E9,1.7478866E9,2.6287713E9,3.9028224E7,2.6551808E8,1.166314E9,0E0,0E0,6.614464E6,3.393344E7,2.7136048E8,1.8553158E8,5.247488E8,0E0,4.91431E6,4.091501E7,2.6875392E7,1.2520685E8,3.624096E7,1.2388685E8,1.1454864E8,1.9192576E8,2.7673677E8,0E0,0E0,0E0,0E0,0E0,0E0,0E0,0E0,0E0,0E0,0E0,0E0,0E0,0E0,0E0,0E0,0E0,0E0],"parents":[2147483647,0,0,1,1,2,2,3,3,4,4,5,5,8,8,9,9,10,10,11,11,12,12,14,14,15,15,16,16,17,17,18,18,19,19,20,20,21,21,22,22],"right_children":[2,4,6,8,10,12,-1,-1,14,16,18,20,22,-1,24,26,28,30,32,34,36,38,40,-1,-1,-1,-1,-1,-1,-1,-1,-1,-1,-1,-1,-1,-1,-1,-1,-1,-1],"split_conditions":[1.9445088E4,6.7847344E3,4.6752082E4,4.4198E2,1.4462004E4,2.927739E4,2.0121947E3,-3.4752548E2,8.33394E3,1.085851E4,5E0,4E0,3E0,-2.632545E2,3E0,5E0,1.19704E4,7.3098647E3,3.2464236E3,6.135919E3,2.050827E4,4.548058E4,4.105486E4,-1.375018E2,-8.7060547E-1,-1.2820473E2,-2.219254E2,-1.4953175E2,-7.8661865E1,1.4966232E-1,3.290228E2,-2.556652E1,-1.7706499E2,1.0901278E2,2.675274E2,-5.240978E1,7.805541E1,4.145331E2,7.53493E1,1.6394785E2,4.289963E2],"split_indices":[9,9,10,5,9,9,0,0,5,7,0,0,0,0,0,0,5,10,10,10,5,7,5,0,0,0,0,0,0,0,0,0,0,0,0,0,0,0,0,0,0],"split_type":[0,0,0,0,0,0,0,0,0,0,0,0,0,0,0,0,0,0,0,0,0,0,0,0,0,0,0,0,0,0,0,0,0,0,0,0,0,0,0,0,0],"sum_hessian":[6.7E2,3.57E2,3.13E2,1.19E2,2.38E2,3.12E2,1E0,8.7E1,3.2E1,1.21E2,1.17E2,1.56E2,1.56E2,3E1,2E0,5.9E1,6.2E1,8.4E1,3.3E1,8.6E1,7E1,6.7E1,8.9E1,1E0,1E0,3.4E1,2.5E1,2.8E1,3.4E1,8.2E1,2E0,5E0,2.8E1,7.1E1,1.5E1,2.6E1,4.4E1,6.2E1,5E0,7.8E1,1.1E1],"tree_param":{"num_deleted":"0","num_feature":"13","num_nodes":"41","size_leaf_vector":"1"}},{"base_weights":[6.7507256E1,-3.6434998E3,3.400933E3,-6.317921E3,-2.1587761E3,3.188257E3,1.9618899E3,-3.2086325E2,-1.7383678E2,-2.7936694E3,-1.1238986E3,9.215355E2,4.9785464E3,-2.5145317E3,-4.45194E3,-8.82886E1,-2.4528745E3,2.1269907E3,6.910415E1,6.960858E3,3.4433691E3,-1.81627E2,-1.0078432E2,-2.4410435E2,6.076016E1,1.8780888E2,-2.2193007E1,3.224437E1,-1.33008E2,1.2055314E2,-8.8204315E1,-5.0263485E1,9.391085E1,3.0917392E2,5.8141846E2,1.2159496E2,3.0803534E2],"categories":[],"categories_nodes":[],"categories_segments":[],"categories_sizes":[],"default_left":[0,0,0,0,0,0,0,0,0,0,0,0,0,0,0,0,0,0,0,0,0,0,0,0,0,0,0,0,0,0,0,0,0,0,0,0,0],"id":21,"left_children":[1,3,5,7,9,11,-1,-1,-1,13,15,17,19,21,23,25,27,29,31,33,35,-1,-1,-1,-1,-1,-1,-1,-1,-1,-1,-1,-1,-1,-1,-1,-1],"loss_changes":[8.3129073E9,1.2490683E9,2.572962E9,9.583616E6,1.3220973E8,1.4279173E9,0E0,0E0,0E0,4.7591936E7,1.098875E8,1.6118114E8,5.7554125E8,5.458413E7,4.7373664E7,6.4548428E7,2.4189712E7,7.61008E7,1.8264882E8,2.3651251E8,2.9559898E8,0E0,0E0,0E0,0E0,0E0,0E0,0E0,0E0,0E0,0E0,0E0,0E0,0E0,0E0,0E0,0E0],"parents":[2147483647,0,0,1,1,2,2,3,3,4,4,5,5,9,9,10,10,11,11,12,12,13,13,14,14,15,15,16,16,17,17,18,18,19,19,20,20],"right_children":[2,4,6,8,10,12,-1,-1,-1,14,16,18,20,22,24,26,28,30,32,34,36,-1,-1,-1,-1,-1,-1,-1,-1,-1,-1,-1,-1,-1,-1,-1,-1],"split_conditions":[1.740504E4,1.7664734E3,4.6752082E4,3.4078386E3,1.4389791E4,2.7097748E4,1.9618899E3,-3.2086325E2,-1.7383678E2,6E0,4E0,3E0,3E0,3E0,5.7329463E3,5E0,3.0041577E3,3.44884E4,2.622242E4,3.6509625E4,3.798273E4,-1.81627E2,-1.0078432E2,-2.4410435E2,6.076016E1,1.8780888E2,-2.2193007E1,3.224437E1,-1.33008E2,1.2055314E2,-8.8204315E1,-5.0263485E1,9.391085E1,3.0917392E2,5.8141846E2,1.2159496E2,3.0803534E2],"split_indices":[9,11,10,10,9,9,0,0,0,0,0,0,0,1,10,1,10,6,8,9,5,0,0,0,0,0,0,0,0,0,0,0,0,0,0,0,0],"split_type":[0,0,0,0,0,0,0,0,0,0,0,0,0,0,0,0,0,0,0,0,0,0,0,0,0,0,0,0,0,0,0,0,0,0,0,0,0],"sum_hessian":[6.7E2,3.17E2,3.53E2,1.12E2,2.05E2,3.52E2,1E0,1.07E2,5E0,1.26E2,7.9E1,1.56E2,1.96E2,1.1E2,1.6E1,4.5E1,3.4E1,6.4E1,9.2E1,8.4E1,1.12E2,3.2E1,7.8E1,1.5E1,1E0,3E0,4.2E1,2E0,3.2E1,6E1,4E0,5.8E1,3.4E1,7.4E1,1E1,8.3E1,2.9E1],"tree_param":{"num_deleted":"0","num_feature":"13","num_nodes":"37","size_leaf_vector":"1"}},{"base_weights":[6.78018E1,-2.5862644E3,4.2996997E3,-5.576497E3,-1.0654332E3,4.0198003E3,1.9128427E3,-6.0403706E3,-3.6086865E3,-2.1066306E3,-4.6373898E1,3.1906943E3,7.021943E3,-3.144858E2,-2.4372107E2,-2.4589912E3,-4.5178027E3,-2.1597866E3,1.26735695E2,-3.183513E3,2.4581248E2,4.067391E3,1.1171726E3,5.852691E3,1.0349319E4,-1.4545383E2,-2.4699415E1,-2.3609631E2,-4.1501686E1,-9.511722E1,-1.977809E2,-2.2316345E2,-5.7993946E1,3.1638193E2,5.010588E0,1.2257576E2,2.5865836E2,1.24272255E2,-4.6823102E-1,3.4643817E2,1.04620544E2,6.0475494E2,2.568526E2],"categories":[],"categories_nodes":[],"categories_segments":[],"categories_sizes":[],"default_left":[0,0,0,0,0,0,0,0,0,0,0,0,0,0,0,0,0,0,0,0,0,0,0,0,0,0,0,0,0,0,0,0,0,0,0,0,0,0,0,0,0,0,0],"id":22,"left_children":[1,3,5,7,9,11,-1,13,15,17,19,21,23,-1,-1,25,27,29,-1,31,33,35,37,39,41,-1,-1,-1,-1,-1,-1,-1,-1,-1,-1,-1,-1,-1,-1,-1,-1,-1,-1],"loss_changes":[7.547615E9,1.8722335E9,2.3079014E9,1.050839E8,2.916888E8,6.197819E8,0E0,1.611264E6,1.9201728E7,3.902771E7,1.2911065E8,3.6629734E8,1.53408E8,0E0,0E0,1.1829232E7,7.372096E6,5.4888704E7,0E0,2.5900256E7,1.1359775E8,2.4283008E8,9.559067E7,1.5949453E8,5.616E7,0E0,0E0,0E0,0E0,0E0,0E0,0E0,0E0,0E0,0E0,0E0,0E0,0E0,0E0,0E0,0E0,0E0,0E0],"parents":[2147483647,0,0,1,1,2,2,3,3,4,4,5,5,7,7,8,8,9,9,10,10,11,11,12,12,15,15,16,16,17,17,19,19,20,20,21,21,22,22,23,23,24,24],"right_children":[2,4,6,8,10,12,-1,14,16,18,20,22,24,-1,-1,26,28,30,-1,32,34,36,38,40,42,-1,-1,-1,-1,-1,-1,-1,-1,-1,-1,-1,-1,-1,-1,-1,-1,-1,-1],"split_conditions":[2.2073152E4,8.976442E3,4.6752082E4,5.0259316E3,1.509825E4,3.397978E4,1.9128427E3,4.4198E2,4E0,2.32248E4,1.038134E4,5E0,4.152945E4,-3.144858E2,-2.4372107E2,8.29404E3,1.145945E4,5.323884E3,1.26735695E2,1.646154E4,2E0,5.434965E3,5.759683E3,5E0,5.841848E4,-1.4545383E2,-2.4699415E1,-2.3609631E2,-4.1501686E1,-9.511722E1,-1.977809E2,-2.2316345E2,-5.7993946E1,3.1638193E2,5.010588E0,1.2257576E2,2.5865836E2,1.24272255E2,-4.6823102E-1,3.4643817E2,1.04620544E2,6.0475494E2,2.568526E2],"split_indices":[9,9,10,9,7,9,0,5,0,5,5,0,9,0,0,5,5,10,0,6,1,10,10,0,9,0,0,0,0,0,0,0,0,0,0,0,0,0,0,0,0,0,0],"split_type":[0,0,0,0,0,0,0,0,0,0,0,0,0,0,0,0,0,0,0,0,0,0,0,0,0,0,0,0,0,0,0,0,0,0,0,0,0,0,0,0,0,0,0],"sum_hessian":[6.7E2,4.12E2,2.58E2,1.38E2,2.74E2,2.57E2,1E0,1.1E2,2.8E1,1.35E2,1.39E2,2.03E2,5.4E1,8.7E1,2.3E1,1.4E1,1.4E1,1.34E2,1E0,1.1E1,1.28E2,1.42E2,6.1E1,4.2E1,1.2E1,1.1E1,3E0,1.3E1,1E0,1.19E2,1.5E1,6E0,5E0,2E0,1.26E2,5.9E1,8.3E1,2.7E1,3.4E1,3.2E1,1E1,8E0,4E0],"tree_param":{"num_deleted":"0","num_feature":"13","num_nodes":"43","size_leaf_vector":"1"}},{"base_weights":[6.828474E1,-3.3037393E3,3.0971982E3,-5.7113604E3,-1.9670165E3,2.8946382E3,1.8650215E3,-2.900942E2,-1.5650206E2,-1.4807932E3,-3.153356E3,8.292365E2,4.5259756E3,-2.2027832E3,-2.5533131E2,-2.2167227E2,-2.57394E3,1.947976E3,3.8405388E1,6.3704985E3,3.0984495E3,-1.509857E2,-9.1141556E1,1.9272406E2,-2.3946295E1,-2.2933281E2,-1.12495056E2,1.1114333E2,-8.976432E1,2.5950595E2,-1.566421E1,2.2489812E2,3.9675104E2,1.2709112E2,3.7857892E2],"categories":[],"categories_nodes":[],"categories_segments":[],"categories_sizes":[],"default_left":[0,0,0,0,0,0,0,0,0,0,0,0,0,0,0,0,0,0,0,0,0,0,0,0,0,0,0,0,0,0,0,0,0,0,0],"id":23,"left_children":[1,3,5,7,9,11,-1,-1,-1,13,15,17,19,21,23,-1,25,27,29,31,33,-1,-1,-1,-1,-1,-1,-1,-1,-1,-1,-1,-1,-1,-1],"loss_changes":[6.8635377E9,1.012192E9,2.3446134E9,8.24448E6,1.1415674E8,1.1856333E9,0E0,0E0,0E0,1.3038371E8,3.2349056E7,1.3882842E8,4.9898317E8,2.3362272E7,5.3306188E7,0E0,1.7725056E7,7.087491E7,1.7012378E8,2.133266E8,2.6210918E8,0E0,0E0,0E0,0E0,0E0,0E0,0E0,0E0,0E0,0E0,0E0,0E0,0E0,0E0],"parents":[2147483647,0,0,1,1,2,2,3,3,4,4,5,5,9,9,10,10,11,11,12,12,13,13,14,14,16,16,17,17,18,18,19,19,20,20],"right_children":[2,4,6,8,10,12,-1,-1,-1,14,16,18,20,22,24,-1,26,28,30,32,34,-1,-1,-1,-1,-1,-1,-1,-1,-1,-1,-1,-1,-1,-1],"split_conditions":[1.740504E4,1.7664734E3,4.6752082E4,3.4078386E3,5E0,2.7097748E4,1.8650215E3,-2.900942E2,-1.5650206E2,1.4462004E4,8.07058E3,3E0,3E0,3E0,2E0,-2.2167227E2,6.45766E3,3.44884E4,3E0,3.208796E4,4.105486E4,-1.509857E2,-9.1141556E1,1.9272406E2,-2.3946295E1,-2.2933281E2,-1.12495056E2,1.1114333E2,-8.976432E1,2.5950595E2,-1.566421E1,2.2489812E2,3.9675104E2,1.2709112E2,3.7857892E2],"split_indices":[9,11,10,10,0,9,0,0,0,9,6,0,0,1,1,0,7,6,1,9,5,0,0,0,0,0,0,0,0,0,0,0,0,0,0],"split_type":[0,0,0,0,0,0,0,0,0,0,0,0,0,0,0,0,0,0,0,0,0,0,0,0,0,0,0,0,0,0,0,0,0,0,0],"sum_hessian":[6.7E2,3.17E2,3.53E2,1.12E2,2.05E2,3.52E2,1E0,1.07E2,5E0,1.47E2,5.8E1,1.56E2,1.96E2,9.2E1,5.5E1,1.6E1,4.2E1,6.4E1,9.2E1,8.4E1,1.12E2,2.7E1,6.5E1,2E0,5.3E1,4E0,3.8E1,6E1,4E0,5E0,8.7E1,4E1,4.4E1,1.01E2,1.1E1],"tree_param":{"num_deleted":"0","num_feature":"13","num_nodes":"35","size_leaf_vector":"1"}},{"base_weights":[6.811062E1,-2.3437283E3,3.913753E3,-4.8282583E3,-8.477983E2,3.6470005E3,1.8183959E3,-5.461968E3,-3.1578132E3,-1.4054768E3,6.4866693E2,3.161586E3,8.044601E3,-2.846003E2,-2.1954552E2,-3.316363E3,9.545928E1,-1.2022365E2,-1.9878591E3,2.5035606E1,4.942012E3,4.0312483E3,9.7930396E2,9.769975E3,4.960491E3,-1.3775865E2,-2.0631236E2,-7.93367E1,6.995889E1,-7.9987305E1,-1.5400995E2,5.903407E1,-5.656963E1,3.769568E2,-9.458814E0,1.4727551E2,3.010451E2,-1.6438326E1,1.0755829E2,5.6004144E2,2.3340514E2,3.1663168E2,4.8804226E1],"categories":[],"categories_nodes":[],"categories_segments":[],"categories_sizes":[],"default_left":[0,0,0,0,0,0,0,0,0,0,0,0,0,0,0,0,0,0,0,0,0,0,0,0,0,0,0,0,0,0,0,0,0,0,0,0,0,0,0,0,0,0,0],"id":24,"left_children":[1,3,5,7,9,11,-1,13,15,17,19,21,23,-1,-1,25,-1,27,29,31,33,35,37,39,41,-1,-1,-1,-1,-1,-1,-1,-1,-1,-1,-1,-1,-1,-1,-1,-1,-1,-1],"loss_changes":[6.232744E9,1.5308964E9,2.1095867E9,1.4683162E8,2.1705925E8,5.253084E8,0E0,2.355968E6,4.2483264E7,1.4122915E8,1.8997626E8,4.4014874E8,8.456717E7,0E0,0E0,8.629408E6,0E0,1.3591322E8,5.018611E7,8.553035E7,1.2136317E8,3.4302592E8,1.0494291E8,5.7213824E7,5.3957696E7,0E0,0E0,0E0,0E0,0E0,0E0,0E0,0E0,0E0,0E0,0E0,0E0,0E0,0E0,0E0,0E0,0E0,0E0],"parents":[2147483647,0,0,1,1,2,2,3,3,4,4,5,5,7,7,8,8,9,9,10,10,11,11,12,12,15,15,17,17,18,18,19,19,20,20,21,21,22,22,23,23,24,24],"right_children":[2,4,6,8,10,12,-1,14,16,18,20,22,24,-1,-1,26,-1,28,30,32,34,36,38,40,42,-1,-1,-1,-1,-1,-1,-1,-1,-1,-1,-1,-1,-1,-1,-1,-1,-1,-1],"split_conditions":[2.2073152E4,1.046773E4,4.6752082E4,5.0259316E3,1.916907E4,3.764137E4,1.8183959E3,4.4198E2,4.4271543E3,2E0,6.34604E3,5E0,2.805578E4,-2.846003E2,-2.1954552E2,5E0,9.545928E1,1.5178473E4,5.0805376E3,2.205137E4,1.9879084E4,6.818208E3,6E0,5.841848E4,9.696171E3,-1.3775865E2,-2.0631236E2,-7.93367E1,6.995889E1,-7.9987305E1,-1.5400995E2,5.903407E1,-5.656963E1,3.769568E2,-9.458814E0,1.4727551E2,3.010451E2,-1.6438326E1,1.0755829E2,5.6004144E2,2.3340514E2,3.1663168E2,4.8804226E1],"split_indices":[9,9,10,9,5,9,0,5,12,0,10,0,8,0,0,0,0,9,10,5,9,10,0,9,12,0,0,0,0,0,0,0,0,0,0,0,0,0,0,0,0,0,0],"split_type":[0,0,0,0,0,0,0,0,0,0,0,0,0,0,0,0,0,0,0,0,0,0,0,0,0,0,0,0,0,0,0,0,0,0,0,0,0,0,0,0,0,0,0],"sum_hessian":[6.7E2,4.12E2,2.58E2,1.54E2,2.58E2,2.57E2,1E0,1.1E2,4.4E1,1.88E2,7E1,2.33E2,2.4E1,8.7E1,2.3E1,4.3E1,1E0,5.9E1,1.29E2,6.2E1,8E0,1.66E2,6.7E1,1.4E1,1E1,2.8E1,1.5E1,3E1,2.9E1,9.7E1,3.2E1,3.1E1,3.1E1,5E0,3E0,1.09E2,5.7E1,3.2E1,3.5E1,1E1,4E0,7E0,3E0],"tree_param":{"num_deleted":"0","num_feature":"13","num_nodes":"43","size_leaf_vector":"1"}},{"base_weights":[6.901283E1,-2.99663E3,2.8227004E3,-5.1340693E3,-1.7770114E3,2.6297974E3,1.7729359E3,-4.1134316E3,-2.715204E2,-1.981295E3,1.3767938E3,1.130369E3,4.4944956E3,-2.1517834E2,3.501243E1,-1.5535756E3,-2.9426887E3,2.097383E3,-1.8175691E2,2.7853901E3,5.3316724E2,6.235494E3,3.1291355E3,-1.2401393E2,-5.0689106E1,-2.2012125E2,-1.16554825E2,1.9599107E2,5.2718395E1,7.856606E1,2.1239273E2,1.7062688E2,2.4520361E0,3.340107E2,2.633436E1,1.4086588E2,5.616376E2],"categories":[],"categories_nodes":[],"categories_segments":[],"categories_sizes":[],"default_left":[0,0,0,0,0,0,0,0,0,0,0,0,0,0,0,0,0,0,0,0,0,0,0,0,0,0,0,0,0,0,0,0,0,0,0,0,0],"id":25,"left_children":[1,3,5,7,9,11,-1,13,-1,15,17,19,21,-1,-1,23,25,27,-1,29,31,33,35,-1,-1,-1,-1,-1,-1,-1,-1,-1,-1,-1,-1,-1,-1],"loss_changes":[5.672921E9,8.198584E8,2.1353869E9,1.2444416E7,1.3415904E8,9.8190106E8,0E0,3.0471072E7,0E0,7.43801E7,5.457435E7,1.9322608E8,3.536914E8,0E0,0E0,6.501635E7,4.151779E7,1.8677036E7,0E0,8.565293E7,2.0335363E8,1.6912154E8,1.9577056E8,0E0,0E0,0E0,0E0,0E0,0E0,0E0,0E0,0E0,0E0,0E0,0E0,0E0,0E0],"parents":[2147483647,0,0,1,1,2,2,3,3,4,4,5,5,7,7,9,9,10,10,11,11,12,12,15,15,16,16,17,17,19,19,20,20,21,21,22,22],"right_children":[2,4,6,8,10,12,-1,14,-1,16,18,20,22,-1,-1,24,26,28,-1,30,32,34,36,-1,-1,-1,-1,-1,-1,-1,-1,-1,-1,-1,-1,-1,-1],"split_conditions":[1.740504E4,5.81322E3,4.6752082E4,5E0,2.351644E4,2.927739E4,1.7729359E3,8.346504E3,-2.715204E2,5E0,1E0,2E0,3E0,-2.1517834E2,3.501243E1,1.18138E4,6.77015E3,7E0,-1.8175691E2,5.2769355E3,3E0,4.548058E4,4.3055195E4,-1.2401393E2,-5.0689106E1,-2.2012125E2,-1.16554825E2,1.9599107E2,5.2718395E1,7.856606E1,2.1239273E2,1.7062688E2,2.4520361E0,3.340107E2,2.633436E1,1.4086588E2,5.616376E2],"split_indices":[9,5,10,1,7,9,0,9,0,0,4,0,0,0,0,9,7,1,0,10,1,7,10,0,0,0,0,0,0,0,0,0,0,0,0,0,0],"split_type":[0,0,0,0,0,0,0,0,0,0,0,0,0,0,0,0,0,0,0,0,0,0,0,0,0,0,0,0,0,0,0,0,0,0,0,0,0],"sum_hessian":[6.7E2,3.17E2,3.53E2,1.14E2,2.03E2,3.52E2,1E0,2.9E1,8.5E1,1.91E2,1.2E1,1.96E2,1.56E2,2.8E1,1E0,1.34E2,5.7E1,1.1E1,1E0,5.1E1,1.45E2,6.7E1,8.9E1,4.8E1,8.6E1,1.5E1,4.2E1,3E0,8E0,2.9E1,2.2E1,2E1,1.25E2,6.2E1,5E0,8.7E1,2E0],"tree_param":{"num_deleted":"0","num_feature":"13","num_nodes":"37","size_leaf_vector":"1"}},{"base_weights":[6.91447E1,-2.5246865E3,3.0262224E3,-4.6067744E3,-1.2435715E3,2.814982E3,1.7286125E3,-2.5730234E2,-3.5442688E3,-7.4104425E2,-2.5080686E3,1.3527446E3,4.2967935E3,-3.6367295E3,-4.5714684E1,-1.8169742E3,2.4233984E2,-7.764242E1,-2.7162495E3,1.6801694E3,-1.1482893E3,5.20766E3,1.9545035E3,-1.8958763E2,-1.1046022E2,-3.0857782E1,-1.0144923E2,2.1755931E0,2.8312338E2,-1.1135071E2,3.988174E1,-7.855722E1,-1.596134E2,6.275755E1,2.0245384E2,-1.2432365E2,3.0742807E1,2.2973816E2,4.059515E2,6.4392654E1,5.429164E2],"categories":[],"categories_nodes":[],"categories_segments":[],"categories_sizes":[],"default_left":[0,0,0,0,0,0,0,0,0,0,0,0,0,0,0,0,0,0,0,0,0,0,0,0,0,0,0,0,0,0,0,0,0,0,0,0,0,0,0,0,0],"id":26,"left_children":[1,3,5,7,9,11,-1,-1,13,15,17,19,21,23,-1,25,27,29,31,33,35,37,39,-1,-1,-1,-1,-1,-1,-1,-1,-1,-1,-1,-1,-1,-1,-1,-1,-1,-1],"loss_changes":[5.154318E9,9.491981E8,1.9951127E9,5.96864E7,1.3984547E8,6.723832E8,0E0,0E0,8.590272E6,1.7078677E8,3.166512E7,1.3213453E8,3.2051635E8,2.02432E6,0E0,1.8334576E7,9.135583E7,1.306412E7,2.6599744E7,1.368807E8,4.6357652E7,1.607598E8,2.5312432E8,0E0,0E0,0E0,0E0,0E0,0E0,0E0,0E0,0E0,0E0,0E0,0E0,0E0,0E0,0E0,0E0,0E0,0E0],"parents":[2147483647,0,0,1,1,2,2,3,3,4,4,5,5,8,8,9,9,10,10,11,11,12,12,13,13,15,15,16,16,17,17,18,18,19,19,20,20,21,21,22,22],"right_children":[2,4,6,8,10,12,-1,-1,14,16,18,20,22,24,-1,26,28,30,32,34,36,38,40,-1,-1,-1,-1,-1,-1,-1,-1,-1,-1,-1,-1,-1,-1,-1,-1,-1,-1],"split_conditions":[1.9445088E4,8.849016E3,4.6752082E4,4.4198E2,5E0,2.9380764E4,1.7286125E3,-2.5730234E2,1.145945E4,1.4462004E4,8.64087E3,3.1793186E4,5E0,3.4767039E3,-4.5714684E1,8.50379E3,7.3098647E3,5.45596E3,3.333547E3,3.064466E4,3.693302E4,3.6509625E4,4.304678E4,-1.8958763E2,-1.1046022E2,-3.0857782E1,-1.0144923E2,2.1755931E0,2.8312338E2,-1.1135071E2,3.988174E1,-7.855722E1,-1.596134E2,6.275755E1,2.0245384E2,-1.2432365E2,3.0742807E1,2.2973816E2,4.059515E2,6.4392654E1,5.429164E2],"split_indices":[9,9,10,5,0,9,0,0,5,9,5,11,0,10,0,6,10,6,10,7,11,9,5,0,0,0,0,0,0,0,0,0,0,0,0,0,0,0,0,0,0],"split_type":[0,0,0,0,0,0,0,0,0,0,0,0,0,0,0,0,0,0,0,0,0,0,0,0,0,0,0,0,0,0,0,0,0,0,0,0,0,0,0,0,0],"sum_hessian":[6.7E2,3.57E2,3.13E2,1.35E2,2.22E2,3.12E2,1E0,8.7E1,4.8E1,1.6E2,6.2E1,1.58E2,1.54E2,4.6E1,2E0,7.6E1,8.4E1,5E0,5.7E1,1.4E2,1.8E1,1.1E2,4.4E1,4E1,6E0,1.2E1,6.4E1,8.2E1,2E0,1E0,4E0,1.8E1,3.9E1,1.2E2,2E1,1E1,8E0,9.3E1,1.7E1,4.2E1,2E0],"tree_param":{"num_deleted":"0","num_feature":"13","num_nodes":"41","size_leaf_vector":"1"}},{"base_weights":[6.923958E1,-1.7813671E3,3.8455037E3,-4.085239E3,-4.882338E2,3.5565474E3,1.6853973E3,-2.3516125E2,-2.687514E3,-1.1923014E3,8.211486E2,4.6777104E3,2.0320938E3,-2.8162454E3,9.694458E1,1.550339E2,-1.7752797E3,3.001052E2,4.3652065E3,2.233184E3,5.668882E3,1.6821235E3,4.7866916E2,-1.1441583E2,-1.8284929E2,-4.3993374E1,1.010165E2,-7.963605E1,-2.6717807E2,-3.526022E1,6.60543E1,-1.1130352E2,2.549993E2,1.4301141E2,-2.3788038E1,3.7791818E2,2.2900105E2,3.2802753E1,1.369608E2],"categories":[],"categories_nodes":[],"categories_segments":[],"categories_sizes":[],"default_left":[0,0,0,0,0,0,0,0,0,0,0,0,0,0,0,0,0,0,0,0,0,0,0,0,0,0,0,0,0,0,0,0,0,0,0,0,0,0,0],"id":27,"left_children":[1,3,5,7,9,11,-1,-1,13,15,17,19,21,23,-1,25,27,29,31,33,35,37,-1,-1,-1,-1,-1,-1,-1,-1,-1,-1,-1,-1,-1,-1,-1,-1,-1],"loss_changes":[4.6960527E9,1.3416308E9,1.7871117E9,1.2729139E8,2.6832826E8,3.6650982E8,0E0,0E0,3.6429664E7,1.4872854E8,1.87044E8,2.926313E8,2.3462285E8,1.4268032E7,0E0,1.1374069E8,7.747674E7,9.33078E7,7.431363E7,6.5908656E7,1.4848973E8,9.799067E7,0E0,0E0,0E0,0E0,0E0,0E0,0E0,0E0,0E0,0E0,0E0,0E0,0E0,0E0,0E0,0E0,0E0],"parents":[2147483647,0,0,1,1,2,2,3,3,4,4,5,5,8,8,9,9,10,10,11,11,12,12,13,13,15,15,16,16,17,17,18,18,19,19,20,20,21,21],"right_children":[2,4,6,8,10,12,-1,-1,14,16,18,20,22,24,-1,26,28,30,32,34,36,38,-1,-1,-1,-1,-1,-1,-1,-1,-1,-1,-1,-1,-1,-1,-1,-1,-1],"split_conditions":[2.4928416E4,1.0920195E4,4.6752082E4,5.0259316E3,1.916907E4,4E0,1.6853973E3,-2.3516125E2,4.436176E3,2E0,6.52863E3,5.543227E3,4.4686004E4,5E0,9.694458E1,1.6290932E4,6.0984053E3,2.0992762E4,1.973566E4,3.1793186E4,3.132043E4,2.75046E4,4.7866916E2,-1.1441583E2,-1.8284929E2,-4.3993374E1,1.010165E2,-7.963605E1,-2.6717807E2,-3.526022E1,6.60543E1,-1.1130352E2,2.549993E2,1.4301141E2,-2.3788038E1,3.7791818E2,2.2900105E2,3.2802753E1,1.369608E2],"split_indices":[9,9,10,9,5,0,0,0,12,0,10,10,9,0,0,9,10,11,5,11,5,6,0,0,0,0,0,0,0,0,0,0,0,0,0,0,0,0,0],"split_type":[0,0,0,0,0,0,0,0,0,0,0,0,0,0,0,0,0,0,0,0,0,0,0,0,0,0,0,0,0,0,0,0,0,0,0,0,0,0,0],"sum_hessian":[6.7E2,4.5E2,2.2E2,1.61E2,2.89E2,2.19E2,1E0,1.1E2,5.1E1,1.88E2,1.01E2,1.25E2,9.4E1,5E1,1E0,5.7E1,1.31E2,8.9E1,1.2E1,3.7E1,8.8E1,9.1E1,3E0,3.3E1,1.7E1,3.7E1,2E1,1.26E2,5E0,4.5E1,4.4E1,1E0,1.1E1,3E1,7E0,3E1,5.8E1,4.7E1,4.4E1],"tree_param":{"num_deleted":"0","num_feature":"13","num_nodes":"39","size_leaf_vector":"1"}},{"base_weights":[6.9517E1,-1.9254236E3,3.25037E3,-3.8836653E3,-6.589133E2,3.008199E3,1.6432623E3,-4.4701826E3,-2.5569905E3,-1.1190791E3,5.29947E2,2.58064E3,6.8898257E3,-2.3295898E2,-1.795468E2,-2.6812615E3,9.452095E1,4.9860336E1,-1.6390034E3,-2.2374441E1,4.3373145E3,3.320907E3,7.246798E2,9.126495E3,4.79028E3,-1.088633E2,-1.7421472E2,-4.5678596E1,8.120597E1,-6.2003693E1,-1.3860533E2,5.5322628E1,-5.7525112E1,3.3947165E2,-2.1259619E1,1.18916466E2,2.525649E2,8.628965E1,-3.835587E1,4.4844532E1,4.9298828E2,5.088635E2,1.5893227E2],"categories":[],"categories_nodes":[],"categories_segments":[],"categories_sizes":[],"default_left":[0,0,0,0,0,0,0,0,0,0,0,0,0,0,0,0,0,0,0,0,0,0,0,0,0,0,0,0,0,0,0,0,0,0,0,0,0,0,0,0,0,0,0],"id":28,"left_children":[1,3,5,7,9,11,-1,13,15,17,19,21,23,-1,-1,25,-1,27,29,31,33,35,37,39,41,-1,-1,-1,-1,-1,-1,-1,-1,-1,-1,-1,-1,-1,-1,-1,-1,-1,-1],"loss_changes":[4.2641646E9,1.02173594E9,1.7586476E9,1.1462502E8,1.3845542E8,4.1040333E8,0E0,1.714432E6,3.380829E7,1.1069403E8,1.4940227E8,3.190876E8,7.368128E7,0E0,0E0,1.3054752E7,0E0,8.793519E7,5.351795E7,8.150102E7,1.0799091E8,2.60368E8,1.02879016E8,5.753677E7,9.787795E7,0E0,0E0,0E0,0E0,0E0,0E0,0E0,0E0,0E0,0E0,0E0,0E0,0E0,0E0,0E0,0E0,0E0,0E0],"parents":[2147483647,0,0,1,1,2,2,3,3,4,4,5,5,7,7,8,8,9,9,10,10,11,11,12,12,15,15,17,17,18,18,19,19,20,20,21,21,22,22,23,23,24,24],"right_children":[2,4,6,8,10,12,-1,14,16,18,20,22,24,-1,-1,26,-1,28,30,32,34,36,38,40,42,-1,-1,-1,-1,-1,-1,-1,-1,-1,-1,-1,-1,-1,-1,-1,-1,-1,-1],"split_conditions":[2.2073152E4,1.0920195E4,4.6752082E4,5.0259316E3,1.916907E4,3.764137E4,1.6432623E3,4.4198E2,4.436176E3,2E0,6.34604E3,5E0,3E0,-2.3295898E2,-1.795468E2,5E0,9.452095E1,1.585278E4,5.0805376E3,2.205137E4,1.9879084E4,6.818208E3,7.063268E3,2.480727E4,2.325573E4,-1.088633E2,-1.7421472E2,-4.5678596E1,8.120597E1,-6.2003693E1,-1.3860533E2,5.5322628E1,-5.7525112E1,3.3947165E2,-2.1259619E1,1.18916466E2,2.525649E2,8.628965E1,-3.835587E1,4.4844532E1,4.9298828E2,5.088635E2,1.5893227E2],"split_indices":[9,9,10,9,5,9,0,5,12,0,10,0,0,0,0,0,0,9,10,5,9,10,10,6,6,0,0,0,0,0,0,0,0,0,0,0,0,0,0,0,0,0,0],"split_type":[0,0,0,0,0,0,0,0,0,0,0,0,0,0,0,0,0,0,0,0,0,0,0,0,0,0,0,0,0,0,0,0,0,0,0,0,0,0,0,0,0,0,0],"sum_hessian":[6.7E2,4.12E2,2.58E2,1.61E2,2.51E2,2.57E2,1E0,1.1E2,5.1E1,1.81E2,7E1,2.33E2,2.4E1,8.7E1,2.3E1,5E1,1E0,5.6E1,1.25E2,6.2E1,8E0,1.66E2,6.7E1,1E1,1.4E1,3.3E1,1.7E1,3.5E1,2.1E1,9.4E1,3.1E1,3.1E1,3.1E1,5E0,3E0,1.09E2,5.7E1,4E1,2.7E1,1E0,9E0,2E0,1.2E1],"tree_param":{"num_deleted":"0","num_feature":"13","num_nodes":"43","size_leaf_vector":"1"}},{"base_weights":[7.024123E1,-1.6150692E3,3.509177E3,-3.5784158E3,-3.804024E2,3.233822E3,1.6021807E3,-4.2503896E3,-2.357048E3,-1.0193316E3,7.3205707E2,2.9150369E3,8.0856294E3,-2.214434E2,-1.7094351E2,-2.4529746E3,9.215791E1,-8.421058E2,-2.9649582E2,2.5197583E2,3.9993845E3,3.7055332E3,9.4932416E2,4.0618538E3,1.0092758E4,-9.482702E1,-1.4663768E2,2.919169E1,-7.239734E1,-3.4428513E1,6.0391174E1,3.2532703E2,8.095471E1,1.9423497E2,-1.8578113E2,6.439312E1,-1.5499382E2,3.179508E2,-1.7749023E1,1.4220631E2,6.017473E2],"categories":[],"categories_nodes":[],"categories_segments":[],"categories_sizes":[],"default_left":[0,0,0,0,0,0,0,0,0,0,0,0,0,0,0,0,0,0,0,0,0,0,0,0,0,0,0,0,0,0,0,0,0,0,0,0,0,0,0,0,0],"id":29,"left_children":[1,3,5,7,9,11,-1,13,15,17,19,21,23,-1,-1,25,-1,27,-1,29,31,33,35,37,39,-1,-1,-1,-1,-1,-1,-1,-1,-1,-1,-1,-1,-1,-1,-1,-1],"loss_changes":[3.8945649E9,1.0918984E9,1.6327944E9,1.3278822E8,1.9834384E8,3.1670067E8,0E0,1.331584E6,3.0307488E7,1.490463E8,1.5898766E8,3.1969088E8,6.399571E7,0E0,0E0,1.1256736E7,0E0,1.4943488E8,0E0,8.174335E7,6.704619E7,2.1121766E8,8.761156E7,6.313443E7,7.839674E7,0E0,0E0,0E0,0E0,0E0,0E0,0E0,0E0,0E0,0E0,0E0,0E0,0E0,0E0,0E0,0E0],"parents":[2147483647,0,0,1,1,2,2,3,3,4,4,5,5,7,7,8,8,9,9,10,10,11,11,12,12,15,15,17,17,19,19,20,20,21,21,22,22,23,23,24,24],"right_children":[2,4,6,8,10,12,-1,14,16,18,20,22,24,-1,-1,26,-1,28,-1,30,32,34,36,38,40,-1,-1,-1,-1,-1,-1,-1,-1,-1,-1,-1,-1,-1,-1,-1,-1],"split_conditions":[2.4928416E4,1.1257837E4,4.6752082E4,5.0259316E3,1.916907E4,4.152945E4,1.6021807E3,4.4198E2,4.457455E3,7.2922983E3,6.52863E3,5E0,3.984142E4,-2.214434E2,-1.7094351E2,7.91465E3,9.215791E1,2E0,-2.9649582E2,2.0992762E4,1.9879084E4,5.038067E4,9.910394E3,3.140956E4,2.316889E4,-9.482702E1,-1.4663768E2,2.919169E1,-7.239734E1,-3.4428513E1,6.0391174E1,3.2532703E2,8.095471E1,1.9423497E2,-1.8578113E2,6.439312E1,-1.5499382E2,3.179508E2,-1.7749023E1,1.4220631E2,6.017473E2],"split_indices":[9,9,10,9,5,9,0,5,12,10,10,0,5,0,0,7,0,0,0,11,9,6,10,5,7,0,0,0,0,0,0,0,0,0,0,0,0,0,0,0,0],"split_type":[0,0,0,0,0,0,0,0,0,0,0,0,0,0,0,0,0,0,0,0,0,0,0,0,0,0,0,0,0,0,0,0,0,0,0,0,0,0,0,0,0],"sum_hessian":[6.7E2,4.5E2,2.2E2,1.73E2,2.77E2,2.19E2,1E0,1.1E2,6.3E1,1.76E2,1.01E2,2.07E2,1.2E1,8.7E1,2.3E1,6.2E1,1E0,1.71E2,5E0,8.9E1,1.2E1,1.47E2,6E1,5E0,7E0,3.1E1,3.1E1,5.1E1,1.2E2,4.5E1,4.4E1,5E0,7E0,1.44E2,3E0,5.6E1,4E0,3E0,2E0,2E0,5E0],"tree_param":{"num_deleted":"0","num_feature":"13","num_nodes":"41","size_leaf_vector":"1"}},{"base_weights":[6.98814E1,-2.3519329E3,2.2452122E3,-4.0019087E3,-1.4102705E3,2.074561E3,1.5621262E3,-3.1780947E3,-2.121376E2,-1.5821821E3,1.2372141E3,8.966546E2,3.5734568E3,-3.3415486E3,3.9051735E1,-1.2219926E3,-2.3932751E3,1.9175311E3,-1.7316475E2,2.3161245E3,3.7877322E2,6.6729697E3,3.0105825E3,-1.847803E2,-1.2131091E2,-9.689742E1,-4.0235363E1,-1.8600827E2,-9.219456E1,1.716639E2,5.154035E1,6.0055378E1,1.8066953E2,1.3843272E2,-2.0756881E0,-8.638906E1,3.7776584E2,9.278384E1,2.192395E2],"categories":[],"categories_nodes":[],"categories_segments":[],"categories_sizes":[],"default_left":[0,0,0,0,0,0,0,0,0,0,0,0,0,0,0,0,0,0,0,0,0,0,0,0,0,0,0,0,0,0,0,0,0,0,0,0,0,0,0],"id":30,"left_children":[1,3,5,7,9,11,-1,13,-1,15,17,19,21,23,-1,25,27,29,-1,31,33,35,37,-1,-1,-1,-1,-1,-1,-1,-1,-1,-1,-1,-1,-1,-1,-1,-1],"loss_changes":[3.5402742E9,4.884393E8,1.6869272E9,9.333376E6,9.480467E7,6.20038E8,0E0,2.2023904E7,0E0,5.316771E7,4.821285E7,1.4541099E8,2.5032909E8,4.31936E5,0E0,3.877283E7,3.542083E7,1.2589548E7,0E0,7.232301E7,1.4776704E8,1.835385E8,2.0294477E8,0E0,0E0,0E0,0E0,0E0,0E0,0E0,0E0,0E0,0E0,0E0,0E0,0E0,0E0,0E0,0E0],"parents":[2147483647,0,0,1,1,2,2,3,3,4,4,5,5,7,7,9,9,10,10,11,11,12,12,13,13,15,15,16,16,17,17,19,19,20,20,21,21,22,22],"right_children":[2,4,6,8,10,12,-1,14,-1,16,18,20,22,24,-1,26,28,30,-1,32,34,36,38,-1,-1,-1,-1,-1,-1,-1,-1,-1,-1,-1,-1,-1,-1,-1,-1],"split_conditions":[1.740504E4,5.81322E3,4.6752082E4,5E0,2.351644E4,2.9380764E4,1.5621262E3,8.346504E3,-2.121376E2,5E0,1E0,2E0,1E0,2.19957E3,3.9051735E1,1.18138E4,6.77015E3,7E0,-1.7316475E2,5.2769355E3,3E0,1.956485E4,3.641209E4,-1.847803E2,-1.2131091E2,-9.689742E1,-4.0235363E1,-1.8600827E2,-9.219456E1,1.716639E2,5.154035E1,6.0055378E1,1.8066953E2,1.3843272E2,-2.0756881E0,-8.638906E1,3.7776584E2,9.278384E1,2.192395E2],"split_indices":[9,5,10,1,7,9,0,9,0,0,4,0,0,6,0,9,7,1,0,10,1,5,5,0,0,0,0,0,0,0,0,0,0,0,0,0,0,0,0],"split_type":[0,0,0,0,0,0,0,0,0,0,0,0,0,0,0,0,0,0,0,0,0,0,0,0,0,0,0,0,0,0,0,0,0,0,0,0,0,0,0],"sum_hessian":[6.7E2,3.17E2,3.53E2,1.14E2,2.03E2,3.52E2,1E0,2.9E1,8.5E1,1.91E2,1.2E1,1.98E2,1.54E2,2.8E1,1E0,1.34E2,5.7E1,1.1E1,1E0,5.2E1,1.46E2,2.2E1,1.32E2,1.8E1,1E1,4.8E1,8.6E1,1.5E1,4.2E1,3E0,8E0,2.9E1,2.3E1,2.1E1,1.25E2,2E0,2E1,7.3E1,5.9E1],"tree_param":{"num_deleted":"0","num_feature":"13","num_nodes":"39","size_leaf_vector":"1"}},{"base_weights":[6.89183E1,-1.4634224E3,3.195691E3,-3.341264E3,-4.0937494E2,2.9332944E3,1.5230731E3,-3.8438594E3,-2.2041611E3,-9.923044E2,6.747725E2,2.5059841E3,6.166075E3,-2.0010397E2,-1.5517792E2,-2.3197537E3,9.227637E1,-8.341642E2,-2.8382767E2,-6.578339E1,2.6343054E3,2.715636E3,-2.292802E2,7.6047544E3,3.643688E3,-9.990492E1,-1.7994002E2,1.7667625E1,-6.716045E1,5.0735157E1,-4.2504833E1,2.3919624E2,3.6154762E1,1.8215285E2,7.055998E1,4.4954694E2,1.517099E2,1.1790242E2,4.1250217E2],"categories":[],"categories_nodes":[],"categories_segments":[],"categories_sizes":[],"default_left":[0,0,0,0,0,0,0,0,0,0,0,0,0,0,0,0,0,0,0,0,0,0,0,0,0,0,0,0,0,0,0,0,0,0,0,0,0,0,0],"id":31,"left_children":[1,3,5,7,9,11,-1,13,15,17,19,21,23,-1,-1,25,-1,27,-1,29,31,33,-1,35,37,-1,-1,-1,-1,-1,-1,-1,-1,-1,-1,-1,-1,-1,-1],"loss_changes":[3.2196262E9,8.9131194E8,1.4917793E9,8.411085E7,1.8394421E8,2.8845606E8,0E0,5.80736E5,2.8623056E7,1.3526997E8,1.4818994E8,3.0385907E8,6.301331E7,0E0,0E0,1.3791232E7,0E0,1.1170246E8,0E0,6.442059E7,1.1157523E8,2.2592333E8,0E0,6.775424E7,4.568925E7,0E0,0E0,0E0,0E0,0E0,0E0,0E0,0E0,0E0,0E0,0E0,0E0,0E0,0E0],"parents":[2147483647,0,0,1,1,2,2,3,3,4,4,5,5,7,7,8,8,9,9,10,10,11,11,12,12,15,15,17,17,19,19,20,20,21,21,23,23,24,24],"right_children":[2,4,6,8,10,12,-1,14,16,18,20,22,24,-1,-1,26,-1,28,-1,30,32,34,-1,36,38,-1,-1,-1,-1,-1,-1,-1,-1,-1,-1,-1,-1,-1,-1],"split_conditions":[2.4928416E4,1.0920195E4,4.6752082E4,5.0259316E3,1.916907E4,3.764137E4,1.5230731E3,4.4198E2,4.436176E3,7.2922983E3,2.622242E4,9.910394E3,2.805578E4,-2.0010397E2,-1.5517792E2,6E0,9.227637E1,2E0,-2.8382767E2,2.208814E4,1.904222E4,4E0,-2.292802E2,5.841848E4,3.7231137E4,-9.990492E1,-1.7994002E2,1.7667625E1,-6.716045E1,5.0735157E1,-4.2504833E1,2.3919624E2,3.6154762E1,1.8215285E2,7.055998E1,4.4954694E2,1.517099E2,1.1790242E2,4.1250217E2],"split_indices":[9,9,10,9,5,9,0,5,12,10,8,10,8,0,0,0,0,0,0,5,6,0,0,9,11,0,0,0,0,0,0,0,0,0,0,0,0,0,0],"split_type":[0,0,0,0,0,0,0,0,0,0,0,0,0,0,0,0,0,0,0,0,0,0,0,0,0,0,0,0,0,0,0,0,0,0,0,0,0,0,0],"sum_hessian":[6.7E2,4.5E2,2.2E2,1.61E2,2.89E2,2.19E2,1E0,1.1E2,5.1E1,1.88E2,1.01E2,1.95E2,2.4E1,8.7E1,2.3E1,5E1,1E0,1.83E2,5E0,7.4E1,2.7E1,1.9E2,5E0,1.4E1,1E1,4.2E1,8E0,5.5E1,1.28E2,3.1E1,4.3E1,1.2E1,1.5E1,1.1E2,8E1,1E1,4E0,9E0,1E0],"tree_param":{"num_deleted":"0","num_feature":"13","num_nodes":"39","size_leaf_vector":"1"}},{"base_weights":[6.8580505E1,-2.1370837E3,2.0497463E3,-3.6193025E3,-1.2910436E3,1.8872814E3,1.4849963E3,-2.8759114E3,-1.9182701E2,-1.4503745E3,1.161463E3,8.1368225E2,3.253468E3,-3.0299143E3,3.9754444E1,-1.1185618E3,-2.1976907E3,1.8225094E3,-1.6927733E2,2.1530442E3,3.2524783E2,2.8642222E3,7.284907E3,-1.6796765E2,-1.0927185E2,-7.3853325E1,-2.0794601E1,-1.721173E2,-8.417271E1,1.6179485E2,4.9591805E1,1.1982033E2,-1.3508995E2,6.5601115E0,2.4317265E2,1.605341E2,-1.0323806E2,4.4522028E2,1.4564146E2],"categories":[],"categories_nodes":[],"categories_segments":[],"categories_sizes":[],"default_left":[0,0,0,0,0,0,0,0,0,0,0,0,0,0,0,0,0,0,0,0,0,0,0,0,0,0,0,0,0,0,0,0,0,0,0,0,0,0,0],"id":32,"left_children":[1,3,5,7,9,11,-1,13,-1,15,17,19,21,23,-1,25,27,29,-1,31,33,35,37,-1,-1,-1,-1,-1,-1,-1,-1,-1,-1,-1,-1,-1,-1,-1,-1],"loss_changes":[2.9365074E9,3.9410458E8,1.5341806E9,7.538048E6,8.139965E7,5.151109E8,0E0,1.9369424E7,0E0,4.515181E7,4.524538E7,1.2948361E8,2.2236365E8,7.26256E5,0E0,3.33936E7,3.1327712E7,1.087928E7,0E0,6.909339E7,1.2881287E8,2.508297E8,6.6110336E7,0E0,0E0,0E0,0E0,0E0,0E0,0E0,0E0,0E0,0E0,0E0,0E0,0E0,0E0,0E0,0E0],"parents":[2147483647,0,0,1,1,2,2,3,3,4,4,5,5,7,7,9,9,10,10,11,11,12,12,13,13,15,15,16,16,17,17,19,19,20,20,21,21,22,22],"right_children":[2,4,6,8,10,12,-1,14,-1,16,18,20,22,24,-1,26,28,30,-1,32,34,36,38,-1,-1,-1,-1,-1,-1,-1,-1,-1,-1,-1,-1,-1,-1,-1,-1],"split_conditions":[1.740504E4,5.81322E3,4.6752082E4,5E0,2.351644E4,2.9380764E4,1.4849963E3,8.346504E3,-1.9182701E2,5E0,1E0,2E0,4.152945E4,2.19957E3,3.9754444E1,1.4462004E4,6.77015E3,7E0,-1.6927733E2,8.339673E3,8.929648E3,9.910394E3,5.841848E4,-1.6796765E2,-1.0927185E2,-7.3853325E1,-2.0794601E1,-1.721173E2,-8.417271E1,1.6179485E2,4.9591805E1,1.1982033E2,-1.3508995E2,6.5601115E0,2.4317265E2,1.605341E2,-1.0323806E2,4.4522028E2,1.4564146E2],"split_indices":[9,5,10,1,7,9,0,9,0,0,4,0,9,6,0,9,7,1,0,10,10,10,9,0,0,0,0,0,0,0,0,0,0,0,0,0,0,0,0],"split_type":[0,0,0,0,0,0,0,0,0,0,0,0,0,0,0,0,0,0,0,0,0,0,0,0,0,0,0,0,0,0,0,0,0,0,0,0,0,0,0],"sum_hessian":[6.7E2,3.17E2,3.53E2,1.14E2,2.03E2,3.52E2,1E0,2.9E1,8.5E1,1.91E2,1.2E1,1.98E2,1.54E2,2.8E1,1E0,1.34E2,5.7E1,1.1E1,1E0,5.2E1,1.46E2,1.42E2,1.2E1,1.8E1,1E1,8.8E1,4.6E1,1.5E1,4.2E1,3E0,8E0,5E1,2E0,1.41E2,5E0,1.33E2,9E0,8E0,4E0],"tree_param":{"num_deleted":"0","num_feature":"13","num_nodes":"39","size_leaf_vector":"1"}},{"base_weights":[6.757992E1,-1.3295514E3,2.9184336E3,-2.9333875E3,-3.20929E2,2.66845E3,1.4478713E3,-3.4766074E3,-1.9454065E3,-8.5415985E2,6.075297E2,2.2678503E3,5.702412E3,-1.8115363E2,-2.8278445E3,-2.0345817E3,9.181582E1,-6.910078E2,-5.388824E3,-9.424142E1,2.4655764E3,2.4625637E3,-2.154253E2,7.7104526E3,3.8496885E3,-3.0369482E1,-1.4972597E2,-7.369885E1,-1.26580284E2,2.6891666E1,-6.0669704E1,-1.2155707E2,-3.12994E2,4.7795803E1,-4.2792522E1,2.2452649E2,3.3310158E1,1.6680244E2,6.175819E1,2.7253515E1,4.1862424E2,5.2537225E2,1.3118015E2],"categories":[],"categories_nodes":[],"categories_segments":[],"categories_sizes":[],"default_left":[0,0,0,0,0,0,0,0,0,0,0,0,0,0,0,0,0,0,0,0,0,0,0,0,0,0,0,0,0,0,0,0,0,0,0,0,0,0,0,0,0,0,0],"id":33,"left_children":[1,3,5,7,9,11,-1,13,15,17,19,21,23,-1,25,27,-1,29,31,33,35,37,-1,39,41,-1,-1,-1,-1,-1,-1,-1,-1,-1,-1,-1,-1,-1,-1,-1,-1,-1,-1],"loss_changes":[2.6764844E9,7.2862554E8,1.3612892E9,8.66208E7,1.3815197E8,2.544567E8,0E0,3.01824E5,2.5319232E7,1.2722787E8,1.3323256E8,2.61589E8,6.3325824E7,0E0,7.433504E6,1.38224E7,0E0,1.1106451E8,2.392E5,6.080382E7,9.903051E7,2.0065344E8,0E0,4.761715E7,9.487736E7,0E0,0E0,0E0,0E0,0E0,0E0,0E0,0E0,0E0,0E0,0E0,0E0,0E0,0E0,0E0,0E0,0E0,0E0],"parents":[2147483647,0,0,1,1,2,2,3,3,4,4,5,5,7,7,8,8,9,9,10,10,11,11,12,12,14,14,15,15,17,17,18,18,19,19,20,20,21,21,23,23,24,24],"right_children":[2,4,6,8,10,12,-1,14,16,18,20,22,24,-1,26,28,-1,30,32,34,36,38,-1,40,42,-1,-1,-1,-1,-1,-1,-1,-1,-1,-1,-1,-1,-1,-1,-1,-1,-1,-1],"split_conditions":[2.4928416E4,1.1257837E4,4.6752082E4,5.0259316E3,1.916907E4,3.764137E4,1.4478713E3,7.833457E2,4.457455E3,7.2922983E3,2.622242E4,9.910394E3,3E0,-1.8115363E2,1E0,7.91465E3,9.181582E1,2E0,2.943301E4,2.208814E4,1.904222E4,4E0,-2.154253E2,2.480727E4,2.9713777E4,-3.0369482E1,-1.4972597E2,-7.369885E1,-1.26580284E2,2.6891666E1,-6.0669704E1,-1.2155707E2,-3.12994E2,4.7795803E1,-4.2792522E1,2.2452649E2,3.3310158E1,1.6680244E2,6.175819E1,2.7253515E1,4.1862424E2,5.2537225E2,1.3118015E2],"split_indices":[9,9,10,9,5,9,0,9,12,10,8,10,0,0,0,7,0,0,8,5,6,0,0,6,11,0,0,0,0,0,0,0,0,0,0,0,0,0,0,0,0,0,0],"split_type":[0,0,0,0,0,0,0,0,0,0,0,0,0,0,0,0,0,0,0,0,0,0,0,0,0,0,0,0,0,0,0,0,0,0,0,0,0,0,0,0,0,0,0],"sum_hessian":[6.7E2,4.5E2,2.2E2,1.73E2,2.77E2,2.19E2,1E0,1.1E2,6.3E1,1.76E2,1.01E2,1.95E2,2.4E1,8.6E1,2.4E1,6.2E1,1E0,1.71E2,5E0,7.4E1,2.7E1,1.9E2,5E0,1E1,1.4E1,2E0,2.2E1,3.1E1,3.1E1,5.1E1,1.2E2,2E0,3E0,3.1E1,4.3E1,1.2E1,1.5E1,1.1E2,8E1,1E0,9E0,1E0,1.3E1],"tree_param":{"num_deleted":"0","num_feature":"13","num_nodes":"43","size_leaf_vector":"1"}},{"base_weights":[6.7015144E1,-1.9414065E3,1.8710012E3,-3.2735886E3,-1.1809049E3,1.7163384E3,1.4116744E3,-2.60198E3,-1.7349028E2,-1.3281553E3,1.0847078E3,7.3662067E2,2.9630964E3,-2.7477078E3,4.0603054E1,-1.0178774E3,-2.0274545E3,1.7274923E3,-1.6571768E2,1.9937566E3,2.783566E2,5.8215493E3,2.4464985E3,-1.5248875E2,-9.880817E1,-6.705858E1,-1.9201256E1,-1.6079823E2,-7.6903404E1,1.5224864E2,4.750009E1,4.6278255E1,1.6229614E2,4.804967E0,2.2726927E2,3.9512137E2,1.1630825E2,7.19439E1,1.8242279E2],"categories":[],"categories_nodes":[],"categories_segments":[],"categories_sizes":[],"default_left":[0,0,0,0,0,0,0,0,0,0,0,0,0,0,0,0,0,0,0,0,0,0,0,0,0,0,0,0,0,0,0,0,0,0,0,0,0,0,0],"id":34,"left_children":[1,3,5,7,9,11,-1,13,-1,15,17,19,21,23,-1,25,27,29,-1,31,33,35,37,-1,-1,-1,-1,-1,-1,-1,-1,-1,-1,-1,-1,-1,-1,-1,-1],"loss_changes":[2.434776E9,3.1830848E8,1.394905E9,6.126336E6,6.949754E7,4.2899648E8,0E0,1.7156896E7,0E0,3.9595904E7,4.248495E7,1.1408895E8,2.1464154E8,7.31856E5,0E0,2.7149264E7,2.87888E7,9.399208E6,0E0,6.7886E7,1.1388464E8,1.4890746E8,1.5582886E8,0E0,0E0,0E0,0E0,0E0,0E0,0E0,0E0,0E0,0E0,0E0,0E0,0E0,0E0,0E0,0E0],"parents":[2147483647,0,0,1,1,2,2,3,3,4,4,5,5,7,7,9,9,10,10,11,11,12,12,13,13,15,15,16,16,17,17,19,19,20,20,21,21,22,22],"right_children":[2,4,6,8,10,12,-1,14,-1,16,18,20,22,24,-1,26,28,30,-1,32,34,36,38,-1,-1,-1,-1,-1,-1,-1,-1,-1,-1,-1,-1,-1,-1,-1,-1],"split_conditions":[1.740504E4,5.81322E3,4.6752082E4,5E0,2.351644E4,2.9380764E4,1.4116744E3,8.346504E3,-1.7349028E2,5E0,1E0,2E0,1E0,2.19957E3,4.0603054E1,1.4462004E4,6.77015E3,7E0,-1.6571768E2,5.2769355E3,8.929648E3,3.847953E4,3.641209E4,-1.5248875E2,-9.880817E1,-6.705858E1,-1.9201256E1,-1.6079823E2,-7.6903404E1,1.5224864E2,4.750009E1,4.6278255E1,1.6229614E2,4.804967E0,2.2726927E2,3.9512137E2,1.1630825E2,7.19439E1,1.8242279E2],"split_indices":[9,5,10,1,7,9,0,9,0,0,4,0,0,6,0,9,7,1,0,10,10,7,5,0,0,0,0,0,0,0,0,0,0,0,0,0,0,0,0],"split_type":[0,0,0,0,0,0,0,0,0,0,0,0,0,0,0,0,0,0,0,0,0,0,0,0,0,0,0,0,0,0,0,0,0,0,0,0,0,0,0],"sum_hessian":[6.7E2,3.17E2,3.53E2,1.14E2,2.03E2,3.52E2,1E0,2.9E1,8.5E1,1.91E2,1.2E1,1.98E2,1.54E2,2.8E1,1E0,1.34E2,5.7E1,1.1E1,1E0,5.2E1,1.46E2,2.2E1,1.32E2,1.8E1,1E1,8.8E1,4.6E1,1.5E1,4.2E1,3E0,8E0,2.9E1,2.3E1,1.41E2,5E0,1.3E1,9E0,7.3E1,5.9E1],"tree_param":{"num_deleted":"0","num_feature":"13","num_nodes":"39","size_leaf_vector":"1"}},{"base_weights":[6.6561745E1,-1.2080886E3,2.6674702E3,-2.65565E3,-2.977154E2,2.4293435E3,1.3763827E3,-1.5723547E2,-1.7659429E3,-7.831468E2,5.4756964E2,2.1601145E3,6.5501357E3,-1.8518765E3,9.119688E1,-6.247844E2,-2.5961725E2,-1.1738427E2,2.3091401E3,2.8134556E3,5.3954767E2,2.8984387E3,8.470142E3,-7.932332E1,-1.4811592E2,2.5822784E1,-5.550356E1,4.4751163E1,-4.255064E1,2.1080794E2,3.0768316E1,1.4864977E2,-1.8366089E2,1.7020187E2,5.2593613E0,2.5432791E2,-4.9259995E1,1.0156823E2,5.13892E2],"categories":[],"categories_nodes":[],"categories_segments":[],"categories_sizes":[],"default_left":[0,0,0,0,0,0,0,0,0,0,0,0,0,0,0,0,0,0,0,0,0,0,0,0,0,0,0,0,0,0,0,0,0,0,0,0,0,0,0],"id":35,"left_children":[1,3,5,7,9,11,-1,-1,13,15,17,19,21,23,-1,25,-1,27,29,31,33,35,37,-1,-1,-1,-1,-1,-1,-1,-1,-1,-1,-1,-1,-1,-1,-1,-1],"loss_changes":[2.2277542E9,5.935466E8,1.2414171E9,7.015744E7,1.145E8,2.2992704E8,0E0,0E0,2.3121136E7,1.2034637E8,1.19750104E8,2.187088E8,6.6596416E7,1.386792E7,0E0,9.583184E7,0E0,5.6466504E7,8.784715E7,1.6408294E8,7.5539416E7,5.5998468E7,7.223693E7,0E0,0E0,0E0,0E0,0E0,0E0,0E0,0E0,0E0,0E0,0E0,0E0,0E0,0E0,0E0,0E0],"parents":[2147483647,0,0,1,1,2,2,3,3,4,4,5,5,8,8,9,9,10,10,11,11,12,12,13,13,15,15,17,17,18,18,19,19,20,20,21,21,22,22],"right_children":[2,4,6,8,10,12,-1,-1,14,16,18,20,22,24,-1,26,-1,28,30,32,34,36,38,-1,-1,-1,-1,-1,-1,-1,-1,-1,-1,-1,-1,-1,-1,-1,-1],"split_conditions":[2.4928416E4,1.1257837E4,4.6752082E4,5.0259316E3,1.916907E4,4.152945E4,1.3763827E3,-1.5723547E2,4.457455E3,7.2922983E3,2.622242E4,5E0,3.984142E4,1.323787E4,9.119688E1,2E0,-2.5961725E2,2.208814E4,1.904222E4,5.038067E4,2.029628E4,3.140956E4,2.316889E4,-7.932332E1,-1.4811592E2,2.5822784E1,-5.550356E1,4.4751163E1,-4.255064E1,2.1080794E2,3.0768316E1,1.4864977E2,-1.8366089E2,1.7020187E2,5.2593613E0,2.5432791E2,-4.9259995E1,1.0156823E2,5.13892E2],"split_indices":[9,9,10,9,5,9,0,0,12,10,8,0,5,6,0,0,0,5,6,6,5,5,7,0,0,0,0,0,0,0,0,0,0,0,0,0,0,0,0],"split_type":[0,0,0,0,0,0,0,0,0,0,0,0,0,0,0,0,0,0,0,0,0,0,0,0,0,0,0,0,0,0,0,0,0,0,0,0,0,0,0],"sum_hessian":[6.7E2,4.5E2,2.2E2,1.73E2,2.77E2,2.19E2,1E0,1.1E2,6.3E1,1.76E2,1.01E2,2.07E2,1.2E1,6.2E1,1E0,1.71E2,5E0,7.4E1,2.7E1,1.47E2,6E1,5E0,7E0,5.2E1,1E1,5.1E1,1.2E2,3.1E1,4.3E1,1.2E1,1.5E1,1.44E2,3E0,7E0,5.3E1,3E0,2E0,2E0,5E0],"tree_param":{"num_deleted":"0","num_feature":"13","num_nodes":"39","size_leaf_vector":"1"}},{"base_weights":[6.621188E1,-1.340857E3,2.2135945E3,-2.769523E3,-5.867219E2,2.0193857E3,1.341973E3,-1.5596248E2,-2.154787E3,-6.5528064E2,2.0424156E2,1.6901045E3,5.1128813E3,-1.8307214E3,-2.949923E3,-1.159282E3,-1.2685392E2,1.9895747E3,-1.2348553E3,6.9075537E3,3.4559297E3,-1.1278545E2,-3.0784616E1,-8.948437E1,-1.6978221E2,-4.6156708E1,-1.428968E2,-5.767334E-1,-2.5024287E2,4.8092464E1,1.455316E2,-1.5257608E2,1.9865625E1,1.9472462E1,3.7602097E2,4.9483017E2,1.1444906E2],"categories":[],"categories_nodes":[],"categories_segments":[],"categories_sizes":[],"default_left":[0,0,0,0,0,0,0,0,0,0,0,0,0,0,0,0,0,0,0,0,0,0,0,0,0,0,0,0,0,0,0,0,0,0,0,0,0],"id":36,"left_children":[1,3,5,7,9,11,-1,-1,13,15,-1,17,19,21,23,25,27,29,31,33,35,-1,-1,-1,-1,-1,-1,-1,-1,-1,-1,-1,-1,-1,-1,-1,-1],"loss_changes":[2.0304049E9,4.3580243E8,1.2179617E9,2.337728E7,8.819027E7,2.6129574E8,0E0,0E0,8.514032E6,7.016348E7,0E0,2.1355795E8,5.047008E7,1.9782432E7,1.16284E6,5.1514784E7,7.307087E7,2.0450451E8,6.94098E7,4.101315E7,9.008587E7,0E0,0E0,0E0,0E0,0E0,0E0,0E0,0E0,0E0,0E0,0E0,0E0,0E0,0E0,0E0,0E0],"parents":[2147483647,0,0,1,1,2,2,3,3,4,4,5,5,8,8,9,9,11,11,12,12,13,13,14,14,15,15,16,16,17,17,18,18,19,19,20,20],"right_children":[2,4,6,8,10,12,-1,-1,14,16,-1,18,20,22,24,26,28,30,32,34,36,-1,-1,-1,-1,-1,-1,-1,-1,-1,-1,-1,-1,-1,-1,-1,-1],"split_conditions":[2.1728484E4,7.35657E3,4.6752082E4,7.833457E2,3.096253E4,3.764137E4,1.341973E3,-1.5596248E2,6E0,1.509825E4,2.0424156E2,3.414868E4,3E0,8.29404E3,3E0,5.323884E3,5.038067E4,2.786913E4,3.7155027E4,2.480727E4,2.9713777E4,-1.1278545E2,-3.0784616E1,-8.948437E1,-1.6978221E2,-4.6156708E1,-1.428968E2,-5.767334E-1,-2.5024287E2,4.8092464E1,1.455316E2,-1.5257608E2,1.9865625E1,1.9472462E1,3.7602097E2,4.9483017E2,1.1444906E2],"split_indices":[9,6,10,9,5,9,0,0,0,7,0,11,0,5,1,10,8,6,11,6,11,0,0,0,0,0,0,0,0,0,0,0,0,0,0,0,0],"split_type":[0,0,0,0,0,0,0,0,0,0,0,0,0,0,0,0,0,0,0,0,0,0,0,0,0,0,0,0,0,0,0,0,0,0,0,0,0],"sum_hessian":[6.7E2,4.05E2,2.65E2,1.39E2,2.66E2,2.64E2,1E0,8.6E1,5.3E1,2.63E2,3E0,2.4E2,2.4E1,4E1,1.3E1,1.34E2,1.29E2,2.18E2,2.2E1,1E1,1.4E1,2.9E1,1.1E1,5E0,8E0,1.19E2,1.5E1,1.27E2,2E0,1.04E2,1.14E2,1E1,1.2E1,1E0,9E0,1E0,1.3E1],"tree_param":{"num_deleted":"0","num_feature":"13","num_nodes":"37","size_leaf_vector":"1"}},{"base_weights":[6.5305504E1,-1.095356E3,2.4335996E3,-2.411841E3,-2.6742883E2,2.2067664E3,1.3084237E3,-2.8460278E3,-1.6211132E3,-3.53699E2,1.8512178E2,1.9542257E3,6.0776646E3,-1.4807784E2,-2.3038376E3,-1.704033E3,9.0070854E1,3.6989908E0,-1.2314067E3,2.5599387E3,4.525908E2,7.6591304E3,2.0154934E3,-5.5521667E1,-1.2107232E2,-5.8020355E1,-1.0972039E2,6.0206213E0,-1.3697646E2,-4.7742626E1,-2.2185034E2,1.354559E2,-1.7438985E2,8.53861E1,-2.332324E1,1.07325554E2,4.4637598E2,2.2078568E2,-5.28279E1],"categories":[],"categories_nodes":[],"categories_segments":[],"categories_sizes":[],"default_left":[0,0,0,0,0,0,0,0,0,0,0,0,0,0,0,0,0,0,0,0,0,0,0,0,0,0,0,0,0,0,0,0,0,0,0,0,0,0,0],"id":37,"left_children":[1,3,5,7,9,11,-1,13,15,17,-1,19,21,-1,23,25,-1,27,29,31,33,35,37,-1,-1,-1,-1,-1,-1,-1,-1,-1,-1,-1,-1,-1,-1,-1,-1],"loss_changes":[1.8471023E9,4.909241E8,1.1320859E9,5.512461E7,9.651924E7,2.031858E8,0E0,1.2992E5,2.1232576E7,8.564219E7,0E0,1.8802989E8,6.807741E7,0E0,6.79648E5,1.424816E7,0E0,6.276333E7,6.579856E7,1.4297395E8,7.116225E7,4.3766336E7,4.1533456E7,0E0,0E0,0E0,0E0,0E0,0E0,0E0,0E0,0E0,0E0,0E0,0E0,0E0,0E0,0E0,0E0],"parents":[2147483647,0,0,1,1,2,2,3,3,4,4,5,5,7,7,8,8,9,9,11,11,12,12,14,14,15,15,17,17,18,18,19,19,20,20,21,21,22,22],"right_children":[2,4,6,8,10,12,-1,14,16,18,-1,20,22,-1,24,26,-1,28,30,32,34,36,38,-1,-1,-1,-1,-1,-1,-1,-1,-1,-1,-1,-1,-1,-1,-1,-1],"split_conditions":[2.4928416E4,1.1257837E4,4.6752082E4,5.0259316E3,3.096253E4,4.152945E4,1.3084237E3,4.4198E2,4.457455E3,5E0,1.8512178E2,5E0,5.841848E4,-1.4807784E2,1E0,7.91465E3,9.0070854E1,1E0,3.141379E4,5.038067E4,2.351644E4,9.315232E3,2E0,-5.5521667E1,-1.2107232E2,-5.8020355E1,-1.0972039E2,6.0206213E0,-1.3697646E2,-4.7742626E1,-2.2185034E2,1.354559E2,-1.7438985E2,8.53861E1,-2.332324E1,1.07325554E2,4.4637598E2,2.2078568E2,-5.28279E1],"split_indices":[9,9,10,9,5,9,0,5,12,0,0,0,9,0,0,7,0,4,8,6,7,10,0,0,0,0,0,0,0,0,0,0,0,0,0,0,0,0,0],"split_type":[0,0,0,0,0,0,0,0,0,0,0,0,0,0,0,0,0,0,0,0,0,0,0,0,0,0,0,0,0,0,0,0,0,0,0,0,0,0,0],"sum_hessian":[6.7E2,4.5E2,2.2E2,1.73E2,2.77E2,2.19E2,1E0,1.1E2,6.3E1,2.72E2,5E0,2.07E2,1.2E1,8.7E1,2.3E1,6.2E1,1E0,1.94E2,7.8E1,1.47E2,6E1,8E0,4E0,3E0,2E1,3.1E1,3.1E1,1.87E2,7E0,7.3E1,5E0,1.44E2,3E0,2.5E1,3.5E1,2E0,6E0,2E0,2E0],"tree_param":{"num_deleted":"0","num_feature":"13","num_nodes":"39","size_leaf_vector":"1"}},{"base_weights":[6.417925E1,-1.6122224E3,1.5699181E3,-2.6871611E3,-9.98349E2,1.4298087E3,1.2757131E3,-1.40391E2,-2.082447E3,-9.2094916E2,-3.3990527E3,1.0005522E3,3.6413772E3,-1.1838644E3,-2.4015857E3,-1.0790065E3,1.6320284E3,-4.3243874E1,-1.8664561E2,3.1854019E3,6.282028E2,2.928393E3,5.829294E3,-7.3063286E1,1.8948622E1,-1.2479974E2,-2.4636183E1,-8.9301895E1,-4.409789E1,1.4305447E2,4.5222134E1,7.4422676E1,2.2981468E2,3.99752E1,-8.358395E1,1.8641216E2,5.859899E0,3.6688486E2,9.741553E1],"categories":[],"categories_nodes":[],"categories_segments":[],"categories_sizes":[],"default_left":[0,0,0,0,0,0,0,0,0,0,0,0,0,0,0,0,0,0,0,0,0,0,0,0,0,0,0,0,0,0,0,0,0,0,0,0,0,0,0],"id":38,"left_children":[1,3,5,7,9,11,-1,-1,13,15,17,19,21,23,25,27,29,-1,-1,31,33,35,37,-1,-1,-1,-1,-1,-1,-1,-1,-1,-1,-1,-1,-1,-1,-1,-1],"loss_changes":[1.6962849E9,2.0715795E8,1.151128E9,2.543744E6,3.477571E7,3.314702E8,0E0,0E0,3.752608E6,8.206083E7,1.84784E6,2.3961654E8,7.184678E7,4.022043E6,1.653584E6,2.461688E7,8.143276E6,0E0,0E0,9.610963E7,1.01799464E8,1.007471E8,6.180704E7,0E0,0E0,0E0,0E0,0E0,0E0,0E0,0E0,0E0,0E0,0E0,0E0,0E0,0E0,0E0,0E0],"parents":[2147483647,0,0,1,1,2,2,3,3,4,4,5,5,8,8,9,9,10,10,11,11,12,12,13,13,14,14,15,15,16,16,19,19,20,20,21,21,22,22],"right_children":[2,4,6,8,10,12,-1,-1,14,16,18,20,22,24,26,28,30,-1,-1,32,34,36,38,-1,-1,-1,-1,-1,-1,-1,-1,-1,-1,-1,-1,-1,-1,-1,-1],"split_conditions":[1.740504E4,1.9558478E3,4.6752082E4,1.82462E3,1E0,3.393474E4,1.2757131E3,-1.40391E2,3.7979E3,2.351644E4,2.9272495E3,1E0,4.152945E4,3.61927E3,1.579049E4,8.921219E3,7E0,-4.3243874E1,-1.8664561E2,2.7097748E4,3.3510816E4,3.56101E4,5.841848E4,-7.3063286E1,1.8948622E1,-1.2479974E2,-2.4636183E1,-8.9301895E1,-4.409789E1,1.4305447E2,4.5222134E1,7.4422676E1,2.2981468E2,3.99752E1,-8.358395E1,1.8641216E2,5.859899E0,3.6688486E2,9.741553E1],"split_indices":[9,10,10,9,4,9,0,0,5,7,10,0,9,5,7,11,1,0,0,9,11,11,9,0,0,0,0,0,0,0,0,0,0,0,0,0,0,0,0],"split_type":[0,0,0,0,0,0,0,0,0,0,0,0,0,0,0,0,0,0,0,0,0,0,0,0,0,0,0,0,0,0,0,0,0,0,0,0,0,0,0],"sum_hessian":[6.7E2,3.17E2,3.53E2,1.14E2,2.03E2,3.52E2,1E0,9.2E1,2.2E1,1.98E2,5E0,2.96E2,5.6E1,7E0,1.5E1,1.87E2,1.1E1,1E0,4E0,4.2E1,2.54E2,4.4E1,1.2E1,6E0,1E0,1.4E1,1E0,3.9E1,1.48E2,3E0,8E0,2E1,2.2E1,2.37E2,1.7E1,3.4E1,1E1,8E0,4E0],"tree_param":{"num_deleted":"0","num_feature":"13","num_nodes":"39","size_leaf_vector":"1"}},{"base_weights":[6.3465027E1,-1.1642347E3,1.937084E3,-2.39038E3,-5.169517E2,1.7566472E3,1.2438203E3,-1.3408057E2,-1.8769076E3,-5.798387E2,1.8814139E2,1.4604573E3,4.541653E3,-1.556275E3,-2.6818384E3,-1.1511527E3,-2.130166E2,1.7329971E3,-1.1980945E3,6.274881E3,2.967842E3,-9.7242294E1,-2.2757912E1,-7.811055E1,-1.5651372E2,7.760694E0,-6.965941E1,2.1407442E1,-5.1020996E1,3.7562527E1,1.2537042E2,-1.4561252E2,1.7225302E1,4.1220456E2,1.6299287E2,4.6212784E2,9.297328E1],"categories":[],"categories_nodes":[],"categories_segments":[],"categories_sizes":[],"default_left":[0,0,0,0,0,0,0,0,0,0,0,0,0,0,0,0,0,0,0,0,0,0,0,0,0,0,0,0,0,0,0,0,0,0,0,0,0],"id":39,"left_children":[1,3,5,7,9,11,-1,-1,13,15,-1,17,19,21,23,25,27,29,31,33,35,-1,-1,-1,-1,-1,-1,-1,-1,-1,-1,-1,-1,-1,-1,-1,-1],"loss_changes":[1.5457172E9,3.2099142E8,1.0573004E9,1.5902336E7,7.404286E7,2.1196314E8,0E0,0E0,9.763024E6,5.5081424E7,0E0,1.7669555E8,4.957152E7,1.6657128E7,2.138984E6,3.2783504E7,8.43009E7,1.646167E8,6.1821212E7,3.8434784E7,8.7134984E7,0E0,0E0,0E0,0E0,0E0,0E0,0E0,0E0,0E0,0E0,0E0,0E0,0E0,0E0,0E0,0E0],"parents":[2147483647,0,0,1,1,2,2,3,3,4,4,5,5,8,8,9,9,11,11,12,12,13,13,14,14,15,15,16,16,17,17,18,18,19,19,20,20],"right_children":[2,4,6,8,10,12,-1,-1,14,16,-1,18,20,22,24,26,28,30,32,34,36,-1,-1,-1,-1,-1,-1,-1,-1,-1,-1,-1,-1,-1,-1,-1,-1],"split_conditions":[2.1728484E4,7.35657E3,4.6752082E4,7.833457E2,3.096253E4,3.764137E4,1.2438203E3,-1.3408057E2,6E0,1.4462004E4,1.8814139E2,3.414868E4,3E0,8.29404E3,3E0,8.64341E3,4E0,2.756898E4,3.7155027E4,4.548058E4,2.9713777E4,-9.7242294E1,-2.2757912E1,-7.811055E1,-1.5651372E2,7.760694E0,-6.965941E1,2.1407442E1,-5.1020996E1,3.7562527E1,1.2537042E2,-1.4561252E2,1.7225302E1,4.1220456E2,1.6299287E2,4.6212784E2,9.297328E1],"split_indices":[9,6,10,9,5,9,0,0,0,9,0,11,0,5,1,6,0,6,11,5,11,0,0,0,0,0,0,0,0,0,0,0,0,0,0,0,0],"split_type":[0,0,0,0,0,0,0,0,0,0,0,0,0,0,0,0,0,0,0,0,0,0,0,0,0,0,0,0,0,0,0,0,0,0,0,0,0],"sum_hessian":[6.7E2,4.05E2,2.65E2,1.39E2,2.66E2,2.64E2,1E0,8.6E1,5.3E1,2.63E2,3E0,2.4E2,2.4E1,4E1,1.3E1,1.02E2,1.61E2,2.18E2,2.2E1,1E1,1.4E1,2.9E1,1.1E1,5E0,8E0,1.6E1,8.6E1,9E1,7.1E1,9.7E1,1.21E2,1E1,1.2E1,5E0,5E0,1E0,1.3E1],"tree_param":{"num_deleted":"0","num_feature":"13","num_nodes":"37","size_leaf_vector":"1"}},{"base_weights":[6.3296936E1,-9.504267E2,2.1317407E3,-2.1908196E3,-2.9988348E2,1.9209349E3,1.2127249E3,-2.3881082E3,-1.2106859E3,-6.9008624E2,4.528579E2,4.0561003E3,1.5359276E3,-2.4273186E3,-1.1862776E3,-1.3869742E3,8.872754E1,-5.5682495E2,-2.4086108E2,-1.6778413E2,2.0991184E3,2.5418752E3,6.853471E3,9.750823E2,3.0233928E3,-9.549438E1,-1.27647575E2,4.096587E1,-8.7563E1,-3.4009853E1,-1.0478981E2,1.4789993E1,-4.6543518E1,4.1243473E1,-4.429504E1,1.9313167E2,2.6753382E1,-1.4962753E1,1.5778792E2,4.8737515E2,-3.2398E1,5.5076862E1,-1.768272E2,1.8022086E2,-4.4272137E0],"categories":[],"categories_nodes":[],"categories_segments":[],"categories_sizes":[],"default_left":[0,0,0,0,0,0,0,0,0,0,0,0,0,0,0,0,0,0,0,0,0,0,0,0,0,0,0,0,0,0,0,0,0,0,0,0,0,0,0,0,0,0,0,0,0],"id":40,"left_children":[1,3,5,7,9,11,-1,13,15,17,19,21,23,25,27,29,-1,31,-1,33,35,37,39,41,43,-1,-1,-1,-1,-1,-1,-1,-1,-1,-1,-1,-1,-1,-1,-1,-1,-1,-1,-1,-1],"loss_changes":[1.4089992E9,3.632681E8,9.8406483E8,2.708096E7,8.7547864E7,1.7462214E8,0E0,3.152448E6,1.7196608E7,1.05115144E8,1.0456952E8,1.2236237E8,1.538886E8,3.119936E6,8.233593E6,